{"learner":{"attributes":{"scikit_learn":"{\"_estimator_type\": \"regressor\"}"},"feature_names":["passenger_count","is_night","is_day","distance","day_Friday","day_Monday","day_Saturday","day_Sunday","day_Thursday","day_Tuesday","day_Wednesday"],"feature_types":["int","int","int","float","int","int","int","int","int","int","int"],"gradient_booster":{"model":{"gbtree_model_param":{"num_parallel_tree":"1","num_trees":"200"},"iteration_indptr":[0,1,2,3,4,5,6,7,8,9,10,11,12,13,14,15,16,17,18,19,20,21,22,23,24,25,26,27,28,29,30,31,32,33,34,35,36,37,38,39,40,41,42,43,44,45,46,47,48,49,50,51,52,53,54,55,56,57,58,59,60,61,62,63,64,65,66,67,68,69,70,71,72,73,74,75,76,77,78,79,80,81,82,83,84,85,86,87,88,89,90,91,92,93,94,95,96,97,98,99,100,101,102,103,104,105,106,107,108,109,110,111,112,113,114,115,116,117,118,119,120,121,122,123,124,125,126,127,128,129,130,131,132,133,134,135,136,137,138,139,140,141,142,143,144,145,146,147,148,149,150,151,152,153,154,155,156,157,158,159,160,161,162,163,164,165,166,167,168,169,170,171,172,173,174,175,176,177,178,179,180,181,182,183,184,185,186,187,188,189,190,191,192,193,194,195,196,197,198,199,200],"tree_info":[0,0,0,0,0,0,0,0,0,0,0,0,0,0,0,0,0,0,0,0,0,0,0,0,0,0,0,0,0,0,0,0,0,0,0,0,0,0,0,0,0,0,0,0,0,0,0,0,0,0,0,0,0,0,0,0,0,0,0,0,0,0,0,0,0,0,0,0,0,0,0,0,0,0,0,0,0,0,0,0,0,0,0,0,0,0,0,0,0,0,0,0,0,0,0,0,0,0,0,0,0,0,0,0,0,0,0,0,0,0,0,0,0,0,0,0,0,0,0,0,0,0,0,0,0,0,0,0,0,0,0,0,0,0,0,0,0,0,0,0,0,0,0,0,0,0,0,0,0,0,0,0,0,0,0,0,0,0,0,0,0,0,0,0,0,0,0,0,0,0,0,0,0,0,0,0,0,0,0,0,0,0,0,0,0,0,0,0,0,0,0,0,0,0,0,0,0,0,0,0],"trees":[{"base_weights":[-3.8627148E-4,-2.2381034E-1,6.845584E-1,-4.2654002E-1,-1.8363612E-2,4.480245E-1,1.1894401E0,-5.4506093E-2,-3.286331E-2,-1.1919782E-2,1.0151279E-2,3.5530966E-2,6.200548E-2,1.025879E-1,1.5706325E-1],"categories":[],"categories_nodes":[],"categories_segments":[],"categories_sizes":[],"default_left":[0,0,0,0,0,0,0,0,0,0,0,0,0,0,0],"id":0,"left_children":[1,3,5,7,9,11,13,-1,-1,-1,-1,-1,-1,-1,-1],"loss_changes":[2.3448807E4,4.8122085E3,4.5002305E3,6.746416E2,6.9367346E2,4.09146E2,7.4800195E2,0E0,0E0,0E0,0E0,0E0,0E0,0E0,0E0],"parents":[2147483647,0,0,1,1,2,2,3,3,4,4,5,5,6,6],"right_children":[2,4,6,8,10,12,14,-1,-1,-1,-1,-1,-1,-1,-1],"split_conditions":[1.6098188E0,1.0000212E0,2.2239969E0,7.234664E-1,1.2810733E0,1.9315165E0,2.7954743E0,-5.4506093E-2,-3.286331E-2,-1.1919782E-2,1.0151279E-2,3.5530966E-2,6.200548E-2,1.025879E-1,1.5706325E-1],"split_indices":[3,3,3,3,3,3,3,0,0,0,0,0,0,0,0],"split_type":[0,0,0,0,0,0,0,0,0,0,0,0,0,0,0],"sum_hessian":[1.53225E5,1.15538E5,3.7687E4,5.8153E4,5.7385E4,2.5665E4,1.2022E4,2.6305E4,3.1848E4,3.1168E4,2.6217E4,1.6679E4,8.986E3,8.415E3,3.607E3],"tree_param":{"num_deleted":"0","num_feature":"11","num_nodes":"15","size_leaf_vector":"1"}},{"base_weights":[-3.2753657E-4,-8.162402E-3,1.7428283E-2,-1.9198177E-2,1.405507E-2,1.4317928E-2,5.869948E-2,-2.2984496E-3,8.116148E-5,1.1942599E-3,2.5719467E-3,2.1390892E-3,-7.296246E-4,6.609235E-3,1.8824509E-3],"categories":[],"categories_nodes":[],"categories_segments":[],"categories_sizes":[],"default_left":[0,0,0,0,0,0,0,0,0,0,0,0,0,0,0],"id":1,"left_children":[1,3,5,7,9,11,13,-1,-1,-1,-1,-1,-1,-1,-1],"loss_changes":[2.1417368E1,2.6191149E1,6.0497904E0,5.4072533E0,8.7323093E-1,6.7011805E0,9.724493E-1,0E0,0E0,0E0,0E0,0E0,0E0,0E0,0E0],"parents":[2147483647,0,0,1,1,2,2,3,3,4,4,5,5,6,6],"right_children":[2,4,6,8,10,12,14,-1,-1,-1,-1,-1,-1,-1,-1],"split_conditions":[2E0,1E0,6E0,1E0,1E0,5E0,1E0,-2.2984496E-3,8.116148E-5,1.1942599E-3,2.5719467E-3,2.1390892E-3,-7.296246E-4,6.609235E-3,1.8824509E-3],"split_indices":[0,1,0,8,4,0,6,0,0,0,0,0,0,0,0],"split_type":[0,0,0,0,0,0,0,0,0,0,0,0,0,0,0],"sum_hessian":[1.53953E5,1.06819E5,4.7134E4,7.1369E4,3.545E4,4.3832E4,3.302E3,6.0013E4,1.1356E4,3.0016E4,5.434E3,3.3025E4,1.0807E4,2.785E3,5.17E2],"tree_param":{"num_deleted":"0","num_feature":"11","num_nodes":"15","size_leaf_vector":"1"}},{"base_weights":[-1.3608309E-6,-2.0911238E-1,5.908113E-1,-4.010241E-1,-4.150445E-2,3.786562E-1,1.0571918E0,-5.2315928E-2,-3.3455662E-2,-1.3879441E-2,6.183117E-3,2.8808415E-2,5.191296E-2,8.9600526E-2,1.3787375E-1],"categories":[],"categories_nodes":[],"categories_segments":[],"categories_sizes":[],"default_left":[0,0,0,0,0,0,0,0,0,0,0,0,0,0,0],"id":2,"left_children":[1,3,5,7,9,11,13,-1,-1,-1,-1,-1,-1,-1,-1],"loss_changes":[1.9012902E4,3.6560908E3,3.9801582E3,4.2999902E2,6.100058E2,3.516787E2,6.50667E2,0E0,0E0,0E0,0E0,0E0,0E0,0E0,0E0],"parents":[2147483647,0,0,1,1,2,2,3,3,4,4,5,5,6,6],"right_children":[2,4,6,8,10,12,14,-1,-1,-1,-1,-1,-1,-1,-1],"split_conditions":[1.5730253E0,9.535234E-1,2.1974142E0,6.4441544E-1,1.2273116E0,1.8742964E0,2.7040505E0,-5.2315928E-2,-3.3455662E-2,-1.3879441E-2,6.183117E-3,2.8808415E-2,5.191296E-2,8.9600526E-2,1.3787375E-1],"split_indices":[3,3,3,3,3,3,3,0,0,0,0,0,0,0,0],"split_type":[0,0,0,0,0,0,0,0,0,0,0,0,0,0,0],"sum_hessian":[1.53892E5,1.13663E5,4.0229E4,5.2989E4,6.0674E4,2.7652E4,1.2577E4,1.8672E4,3.4317E4,3.1251E4,2.9423E4,1.6814E4,1.0838E4,8.38E3,4.197E3],"tree_param":{"num_deleted":"0","num_feature":"11","num_nodes":"15","size_leaf_vector":"1"}},{"base_weights":[-2.8909024E-4,-6.6148518E-3,1.4057106E-2,-1.2957848E-2,6.1438116E-3,1.0929958E-2,5.5330083E-2,-1.6528018E-3,5.9920625E-4,8.866079E-4,-1.2899904E-3,1.5832343E-3,-3.9811517E-4,4.436266E-3,7.722467E-3],"categories":[],"categories_nodes":[],"categories_segments":[],"categories_sizes":[],"default_left":[0,0,0,0,0,0,0,0,0,0,0,0,0,0,0],"id":3,"left_children":[1,3,5,7,9,11,13,-1,-1,-1,-1,-1,-1,-1,-1],"loss_changes":[1.3921601E1,8.615851E0,6.058176E0,4.8110056E0,1.8328874E0,3.1900005E0,7.9043484E-1,0E0,0E0,0E0,0E0,0E0,0E0,0E0,0E0],"parents":[2147483647,0,0,1,1,2,2,3,3,4,4,5,5,6,6],"right_children":[2,4,6,8,10,12,14,-1,-1,-1,-1,-1,-1,-1,-1],"split_conditions":[2E0,1E0,6E0,1E0,1E0,5E0,1E0,-1.6528018E-3,5.9920625E-4,8.866079E-4,-1.2899904E-3,1.5832343E-3,-3.9811517E-4,4.436266E-3,7.722467E-3],"split_indices":[0,1,0,8,9,0,1,0,0,0,0,0,0,0,0],"split_type":[0,0,0,0,0,0,0,0,0,0,0,0,0,0,0],"sum_hessian":[1.53403E5,1.06461E5,4.6942E4,7.1109E4,3.5352E4,4.3637E4,3.305E3,5.9836E4,1.1273E4,3.0931E4,4.421E3,3.284E4,1.0797E4,2.204E3,1.101E3],"tree_param":{"num_deleted":"0","num_feature":"11","num_nodes":"15","size_leaf_vector":"1"}},{"base_weights":[-6.3107064E-4,-7.6380665E-3,1.5223709E-2,-1.3855219E-2,4.8464793E-3,1.2143794E-2,5.6206927E-2,-1.718622E-3,3.7314676E-4,2.6471622E-4,1.6924503E-3,1.8704291E-3,1.9726767E-4,5.006114E-3,8.820052E-3],"categories":[],"categories_nodes":[],"categories_segments":[],"categories_sizes":[],"default_left":[0,0,0,0,0,0,0,0,0,0,0,0,0,0,0],"id":4,"left_children":[1,3,5,7,9,11,13,-1,-1,-1,-1,-1,-1,-1,-1],"loss_changes":[1.7067545E1,8.2698345E0,5.9428654E0,4.1666565E0,9.4083095E-1,2.9224305E0,6.426792E-1,0E0,0E0,0E0,0E0,0E0,0E0,0E0,0E0],"parents":[2147483647,0,0,1,1,2,2,3,3,4,4,5,5,6,6],"right_children":[2,4,6,8,10,12,14,-1,-1,-1,-1,-1,-1,-1,-1],"split_conditions":[2E0,1E0,6E0,1E0,1E0,1E0,1E0,-1.718622E-3,3.7314676E-4,2.6471622E-4,1.6924503E-3,1.8704291E-3,1.9726767E-4,5.006114E-3,8.820052E-3],"split_indices":[0,1,0,8,4,1,8,0,0,0,0,0,0,0,0],"split_type":[0,0,0,0,0,0,0,0,0,0,0,0,0,0,0],"sum_hessian":[1.53629E5,1.06543E5,4.7086E4,7.1124E4,3.5419E4,4.3796E4,3.29E3,5.9798E4,1.1326E4,2.9964E4,5.455E3,2.6623E4,1.7173E4,2.762E3,5.28E2],"tree_param":{"num_deleted":"0","num_feature":"11","num_nodes":"15","size_leaf_vector":"1"}},{"base_weights":[-1.0927009E-3,-7.0398613E-3,1.2396838E-2,-1.1643741E-2,2.1875678E-3,9.718345E-3,4.768227E-2,-1.5380917E-3,8.063206E-4,1.04397746E-4,8.552062E-4,1.4008866E-3,-3.3444792E-4,4.3292483E-3,7.247653E-3],"categories":[],"categories_nodes":[],"categories_segments":[],"categories_sizes":[],"default_left":[0,0,0,0,0,0,0,0,0,0,0,0,0,0,0],"id":5,"left_children":[1,3,5,7,9,11,13,-1,-1,-1,-1,-1,-1,-1,-1],"loss_changes":[1.2316465E1,4.5264797E0,4.439227E0,5.235342E0,2.581332E-1,2.4471407E0,3.5756397E-1,0E0,0E0,0E0,0E0,0E0,0E0,0E0,0E0],"parents":[2147483647,0,0,1,1,2,2,3,3,4,4,5,5,6,6],"right_children":[2,4,6,8,10,12,14,-1,-1,-1,-1,-1,-1,-1,-1],"split_conditions":[2E0,1E0,6E0,1E0,1E0,5E0,1E0,-1.5380917E-3,8.063206E-4,1.04397746E-4,8.552062E-4,1.4008866E-3,-3.3444792E-4,4.3292483E-3,7.247653E-3],"split_indices":[0,1,0,8,4,0,10,0,0,0,0,0,0,0,0],"split_type":[0,0,0,0,0,0,0,0,0,0,0,0,0,0,0],"sum_hessian":[1.53523E5,1.06549E5,4.6974E4,7.1083E4,3.5466E4,4.3661E4,3.313E3,5.9752E4,1.1331E4,3.0065E4,5.401E3,3.2866E4,1.0795E4,2.817E3,4.96E2],"tree_param":{"num_deleted":"0","num_feature":"11","num_nodes":"15","size_leaf_vector":"1"}},{"base_weights":[5.5939818E-5,-2.0147258E-1,4.9656478E-1,-3.7822673E-1,-6.6035084E-2,3.3590677E-1,9.979288E-1,-4.6399873E-2,-3.134619E-2,-1.534979E-2,2.6442274E-3,2.3406968E-2,4.8174884E-2,8.757166E-2,1.312205E-1],"categories":[],"categories_nodes":[],"categories_segments":[],"categories_sizes":[],"default_left":[0,0,0,0,0,0,0,0,0,0,0,0,0,0,0],"id":6,"left_children":[1,3,5,7,9,11,13,-1,-1,-1,-1,-1,-1,-1,-1],"loss_changes":[1.5359116E4,2.6136982E3,3.5692363E3,2.6297217E2,5.0000043E2,4.983694E2,4.1189453E2,0E0,0E0,0E0,0E0,0E0,0E0,0E0,0E0],"parents":[2147483647,0,0,1,1,2,2,3,3,4,4,5,5,6,6],"right_children":[2,4,6,8,10,12,14,-1,-1,-1,-1,-1,-1,-1,-1],"split_conditions":[1.5124835E0,9.0758467E-1,2.276825E0,6.6355413E-1,1.1829611E0,1.8468037E0,2.9066827E0,-4.6399873E-2,-3.134619E-2,-1.534979E-2,2.6442274E-3,2.3406968E-2,4.8174884E-2,8.757166E-2,1.312205E-1],"split_indices":[3,3,3,3,3,3,3,0,0,0,0,0,0,0,0],"split_type":[0,0,0,0,0,0,0,0,0,0,0,0,0,0,0],"sum_hessian":[1.53496E5,1.09181E5,4.4315E4,4.7365E4,6.1816E4,3.3562E4,1.0753E4,2.0375E4,2.699E4,3.1769E4,3.0047E4,1.9764E4,1.3798E4,7.745E3,3.008E3],"tree_param":{"num_deleted":"0","num_feature":"11","num_nodes":"15","size_leaf_vector":"1"}},{"base_weights":[2.0414779E-4,-3.947666E-3,9.607567E-3,-2.1695246E-3,-1.4340099E-2,1.6324827E-2,-1.0450315E-3,-1.5327684E-7,-1.4334999E-3,-1.279318E-3,-1.8265554E-3,2.2613162E-3,-1.7511115E-3,-3.1649886E-4,3.1686823E-3],"categories":[],"categories_nodes":[],"categories_segments":[],"categories_sizes":[],"default_left":[0,0,0,0,0,0,0,0,0,0,0,0,0,0,0],"id":7,"left_children":[1,3,5,7,9,11,13,-1,-1,-1,-1,-1,-1,-1,-1],"loss_changes":[5.9922843E0,1.9675434E0,3.3639488E0,2.3979828E0,9.422803E-2,6.1348186E0,1.2616823E0,0E0,0E0,0E0,0E0,0E0,0E0,0E0,0E0],"parents":[2147483647,0,0,1,1,2,2,3,3,4,4,5,5,6,6],"right_children":[2,4,6,8,10,12,14,-1,-1,-1,-1,-1,-1,-1,-1],"split_conditions":[2E0,1E0,1E0,1E0,1E0,1E0,6E0,-1.5327684E-7,-1.4334999E-3,-1.279318E-3,-1.8265554E-3,2.2613162E-3,-1.7511115E-3,-3.1649886E-4,3.1686823E-3],"split_indices":[0,9,1,5,1,6,0,0,0,0,0,0,0,0,0],"split_type":[0,0,0,0,0,0,0,0,0,0,0,0,0,0,0],"sum_hessian":[1.53484E5,1.06474E5,4.701E4,9.0919E4,1.5555E4,2.883E4,1.818E4,7.7168E4,1.3751E4,1.1161E4,4.394E3,2.4312E4,4.518E3,1.7075E4,1.105E3],"tree_param":{"num_deleted":"0","num_feature":"11","num_nodes":"15","size_leaf_vector":"1"}},{"base_weights":[7.4563104E-5,-1.5431838E-1,5.26786E-1,-2.9839063E-1,1.2639225E-2,3.6598065E-1,9.1417366E-1,-3.865726E-2,-2.1405986E-2,-5.72475E-3,1.11334855E-2,3.020755E-2,5.4100007E-2,7.866323E-2,1.1445967E-1],"categories":[],"categories_nodes":[],"categories_segments":[],"categories_sizes":[],"default_left":[0,0,0,0,0,0,0,0,0,0,0,0,0,0,0],"id":8,"left_children":[1,3,5,7,9,11,13,-1,-1,-1,-1,-1,-1,-1,-1],"loss_changes":[1.2509457E4,2.8614382E3,2.1718574E3,4.747788E2,3.80087E2,2.7545972E2,2.9968555E2,0E0,0E0,0E0,0E0,0E0,0E0,0E0,0E0],"parents":[2147483647,0,0,1,1,2,2,3,3,4,4,5,5,6,6],"right_children":[2,4,6,8,10,12,14,-1,-1,-1,-1,-1,-1,-1,-1],"split_conditions":[1.6579354E0,1.0458107E0,2.301075E0,7.669407E-1,1.3499877E0,2.0438797E0,2.7954743E0,-3.865726E-2,-2.1405986E-2,-5.72475E-3,1.11334855E-2,3.020755E-2,5.4100007E-2,7.866323E-2,1.1445967E-1],"split_indices":[3,3,3,3,3,3,3,0,0,0,0,0,0,0,0],"split_type":[0,0,0,0,0,0,0,0,0,0,0,0,0,0,0],"sum_hessian":[1.53827E5,1.18958E5,3.4869E4,6.3855E4,5.5103E4,2.4642E4,1.0227E4,3.1213E4,3.2642E4,3.226E4,2.2843E4,1.8053E4,6.589E3,6.586E3,3.641E3],"tree_param":{"num_deleted":"0","num_feature":"11","num_nodes":"15","size_leaf_vector":"1"}},{"base_weights":[-2.2228336E-4,-1.6392227E-1,4.0368894E-1,-3.093672E-1,-5.475739E-2,2.479988E-1,7.4976087E-1,-3.977148E-2,-2.6512135E-2,-1.3100021E-2,1.5590338E-3,1.6515544E-2,3.3378694E-2,6.356293E-2,1.0095803E-1],"categories":[],"categories_nodes":[],"categories_segments":[],"categories_sizes":[],"default_left":[0,0,0,0,0,0,0,0,0,0,0,0,0,0,0],"id":9,"left_children":[1,3,5,7,9,11,13,-1,-1,-1,-1,-1,-1,-1,-1],"loss_changes":[1.0165131E4,1.7369631E3,2.3887441E3,1.8324707E2,3.3519452E2,2.1729053E2,4.0730273E2,0E0,0E0,0E0,0E0,0E0,0E0,0E0,0E0],"parents":[2147483647,0,0,1,1,2,2,3,3,4,4,5,5,6,6],"right_children":[2,4,6,8,10,12,14,-1,-1,-1,-1,-1,-1,-1,-1],"split_conditions":[1.5124835E0,9.0239495E-1,2.1479154E0,6.114842E-1,1.1604251E0,1.7636703E0,2.7040505E0,-3.977148E-2,-2.6512135E-2,-1.3100021E-2,1.5590338E-3,1.6515544E-2,3.3378694E-2,6.356293E-2,1.0095803E-1],"split_indices":[3,3,3,3,3,3,3,0,0,0,0,0,0,0,0],"split_type":[0,0,0,0,0,0,0,0,0,0,0,0,0,0,0],"sum_hessian":[1.53735E5,1.09398E5,4.4337E4,4.6904E4,6.2494E4,3.0581E4,1.3756E4,1.5649E4,3.1255E4,2.999E4,3.2504E4,1.5559E4,1.5022E4,9.56E3,4.196E3],"tree_param":{"num_deleted":"0","num_feature":"11","num_nodes":"15","size_leaf_vector":"1"}},{"base_weights":[8.8568445E-4,5.323123E-3,-7.4229906E-3,8.981231E-3,-1.8774427E-2,-8.148044E-3,2.7158534E-2,3.0023544E-4,2.434659E-3,-2.332618E-3,-1.0074464E-3,-9.983657E-4,-3.038173E-5,2.5372645E-3,3.7622866E-3],"categories":[],"categories_nodes":[],"categories_segments":[],"categories_sizes":[],"default_left":[0,0,0,0,0,0,0,0,0,0,0,0,0,0,0],"id":10,"left_children":[1,3,5,7,9,11,13,-1,-1,-1,-1,-1,-1,-1,-1],"loss_changes":[5.6611633E0,8.823335E0,1.3405485E0,7.98322E0,5.221691E-1,7.539122E-1,1.9564986E-2,0E0,0E0,0E0,0E0,0E0,0E0,0E0,0E0],"parents":[2147483647,0,0,1,1,2,2,3,3,4,4,5,5,6,6],"right_children":[2,4,6,8,10,12,14,-1,-1,-1,-1,-1,-1,-1,-1],"split_conditions":[1E0,1E0,6E0,2E0,2E0,1E0,1E0,3.0023544E-4,2.434659E-3,-2.332618E-3,-1.0074464E-3,-9.983657E-4,-3.038173E-5,2.5372645E-3,3.7622866E-3],"split_indices":[1,6,0,0,0,6,8,0,0,0,0,0,0,0,0],"split_type":[0,0,0,0,0,0,0,0,0,0,0,0,0,0,0],"sum_hessian":[1.53545E5,1.0009E5,5.3455E4,8.6899E4,1.3191E4,5.2358E4,1.097E3,6.2558E4,2.4341E4,8.659E3,4.532E3,4.2429E4,9.929E3,9.4E2,1.57E2],"tree_param":{"num_deleted":"0","num_feature":"11","num_nodes":"15","size_leaf_vector":"1"}},{"base_weights":[-9.749615E-5,-8.502501E-3,4.3878434E-3,-9.140655E-3,2.1635171E-2,7.861347E-3,-1.8575607E-2,-1.0312003E-3,-2.8677465E-4,1.8918099E-3,3.6381052E-3,2.5786678E-4,2.1407777E-3,-2.5386293E-3,-5.336331E-4],"categories":[],"categories_nodes":[],"categories_segments":[],"categories_sizes":[],"default_left":[0,0,0,0,0,0,0,0,0,0,0,0,0,0,0],"id":11,"left_children":[1,3,5,7,9,11,13,-1,-1,-1,-1,-1,-1,-1,-1],"loss_changes":[5.777304E0,1.0257506E0,7.970367E0,3.836627E-1,4.362434E-2,6.2111197E0,1.1836877E0,0E0,0E0,0E0,0E0,0E0,0E0,0E0,0E0],"parents":[2147483647,0,0,1,1,2,2,3,3,4,4,5,5,6,6],"right_children":[2,4,6,8,10,12,14,-1,-1,-1,-1,-1,-1,-1,-1],"split_conditions":[1E0,6E0,1E0,1E0,1E0,2E0,2E0,-1.0312003E-3,-2.8677465E-4,1.8918099E-3,3.6381052E-3,2.5786678E-4,2.1407777E-3,-2.5386293E-3,-5.336331E-4],"split_indices":[2,0,6,4,8,0,0,0,0,0,0,0,0,0,0],"split_type":[0,0,0,0,0,0,0,0,0,0,0,0,0,0,0],"sum_hessian":[1.53245E5,5.3323E4,9.9922E4,5.2218E4,1.105E3,8.6794E4,1.3128E4,4.4001E4,8.217E3,9.35E2,1.7E2,6.2444E4,2.435E4,8.668E3,4.46E3],"tree_param":{"num_deleted":"0","num_feature":"11","num_nodes":"15","size_leaf_vector":"1"}},{"base_weights":[2.8811238E-4,-1.5800545E-1,3.414404E-1,-2.8678852E-1,-6.749147E-2,2.0437428E-1,6.662157E-1,-3.538392E-2,-2.4678163E-2,-1.3595626E-2,-9.96132E-4,1.3526589E-2,2.8684286E-2,5.5504914E-2,8.879965E-2],"categories":[],"categories_nodes":[],"categories_segments":[],"categories_sizes":[],"default_left":[0,0,0,0,0,0,0,0,0,0,0,0,0,0,0],"id":12,"left_children":[1,3,5,7,9,11,13,-1,-1,-1,-1,-1,-1,-1,-1],"loss_changes":[8.304838E3,1.224467E3,2.169603E3,1.16217285E2,2.4298257E2,1.9531506E2,3.5613623E2,0E0,0E0,0E0,0E0,0E0,0E0,0E0,0E0],"parents":[2147483647,0,0,1,1,2,2,3,3,4,4,5,5,6,6],"right_children":[2,4,6,8,10,12,14,-1,-1,-1,-1,-1,-1,-1,-1],"split_conditions":[1.4567889E0,8.714998E-1,2.1238203E0,6.1824155E-1,1.1127656E0,1.740943E0,2.6324096E0,-3.538392E-2,-2.4678163E-2,-1.3595626E-2,-9.96132E-4,1.3526589E-2,2.8684286E-2,5.5504914E-2,8.879965E-2],"split_indices":[3,3,3,3,3,3,3,0,0,0,0,0,0,0,0],"split_type":[0,0,0,0,0,0,0,0,0,0,0,0,0,0,0],"sum_hessian":[1.53785E5,1.05045E5,4.874E4,4.3356E4,6.1689E4,3.4276E4,1.4464E4,1.6199E4,2.7157E4,2.8167E4,3.3522E4,1.865E4,1.5626E4,9.637E3,4.827E3],"tree_param":{"num_deleted":"0","num_feature":"11","num_nodes":"15","size_leaf_vector":"1"}},{"base_weights":[-4.8863003E-4,-1.173401E-1,3.7227535E-1,-2.2196783E-1,2.2829638E-3,2.562632E-1,6.726736E-1,-2.8313447E-2,-1.5593382E-2,-5.1747886E-3,7.115523E-3,1.970811E-2,3.7101526E-2,5.8605444E-2,8.796903E-2],"categories":[],"categories_nodes":[],"categories_segments":[],"categories_sizes":[],"default_left":[0,0,0,0,0,0,0,0,0,0,0,0,0,0,0],"id":13,"left_children":[1,3,5,7,9,11,13,-1,-1,-1,-1,-1,-1,-1,-1],"loss_changes":[6.6804497E3,1.4614309E3,1.275437E3,2.5153784E2,2.027361E2,1.7926404E2,1.8233301E2,0E0,0E0,0E0,0E0,0E0,0E0,0E0,0E0],"parents":[2147483647,0,0,1,1,2,2,3,3,4,4,5,5,6,6],"right_children":[2,4,6,8,10,12,14,-1,-1,-1,-1,-1,-1,-1,-1],"split_conditions":[1.6288328E0,1.0354052E0,2.301075E0,7.7738655E-1,1.3180854E0,1.9775972E0,2.9066827E0,-2.8313447E-2,-1.5593382E-2,-5.1747886E-3,7.115523E-3,1.970811E-2,3.7101526E-2,5.8605444E-2,8.796903E-2],"split_indices":[3,3,3,3,3,3,3,0,0,0,0,0,0,0,0],"split_type":[0,0,0,0,0,0,0,0,0,0,0,0,0,0,0],"sum_hessian":[1.53367E5,1.16765E5,3.6602E4,6.2286E4,5.4479E4,2.6406E4,1.0196E4,3.2333E4,2.9953E4,3.0529E4,2.395E4,1.7423E4,8.983E3,7.191E3,3.005E3],"tree_param":{"num_deleted":"0","num_feature":"11","num_nodes":"15","size_leaf_vector":"1"}},{"base_weights":[4.422101E-4,8.616924E-3,-1.4820649E-2,1.2397746E-2,-1.628192E-2,-1.537327E-2,1.116777E-2,1.5848111E-3,-1.0012102E-3,-1.9854156E-3,-9.537831E-4,-1.7049931E-3,-8.142817E-4,8.3600264E-4,2.573719E-3],"categories":[],"categories_nodes":[],"categories_segments":[],"categories_sizes":[],"default_left":[0,0,0,0,0,0,0,0,0,0,0,0,0,0,0],"id":14,"left_children":[1,3,5,7,9,11,13,-1,-1,-1,-1,-1,-1,-1,-1],"loss_changes":[1.918082E1,9.424459E0,7.7023315E-1,6.720536E0,3.1777E-1,6.3635635E-1,4.547818E-2,0E0,0E0,0E0,0E0,0E0,0E0,0E0,0E0],"parents":[2147483647,0,0,1,1,2,2,3,3,4,4,5,5,6,6],"right_children":[2,4,6,8,10,12,14,-1,-1,-1,-1,-1,-1,-1,-1],"split_conditions":[1E0,1E0,6E0,1E0,2E0,1E0,1E0,1.5848111E-3,-1.0012102E-3,-1.9854156E-3,-9.537831E-4,-1.7049931E-3,-8.142817E-4,8.3600264E-4,2.573719E-3],"split_indices":[1,6,0,7,0,6,8,0,0,0,0,0,0,0,0],"split_type":[0,0,0,0,0,0,0,0,0,0,0,0,0,0,0],"sum_hessian":[1.53728E5,1.0011E5,5.3618E4,8.6913E4,1.3197E4,5.2502E4,1.116E3,7.5317E4,1.1596E4,8.626E3,4.571E3,4.2618E4,9.884E3,9.37E2,1.79E2],"tree_param":{"num_deleted":"0","num_feature":"11","num_nodes":"15","size_leaf_vector":"1"}},{"base_weights":[-4.3427935E-4,-1.287039E-1,2.7725622E-1,-2.3383921E-1,-5.322838E-2,1.8328132E-1,5.831719E-1,-3.0141136E-2,-2.0291232E-2,-1.1024146E-2,-8.341021E-4,1.1880263E-2,2.7219499E-2,5.1261544E-2,7.819679E-2],"categories":[],"categories_nodes":[],"categories_segments":[],"categories_sizes":[],"default_left":[0,0,0,0,0,0,0,0,0,0,0,0,0,0,0],"id":15,"left_children":[1,3,5,7,9,11,13,-1,-1,-1,-1,-1,-1,-1,-1],"loss_changes":[5.4664517E3,8.3300305E2,1.3939314E3,9.161621E1,1.5638977E2,2.1264612E2,1.594292E2,0E0,0E0,0E0,0E0,0E0,0E0,0E0,0E0],"parents":[2147483647,0,0,1,1,2,2,3,3,4,4,5,5,6,6],"right_children":[2,4,6,8,10,12,14,-1,-1,-1,-1,-1,-1,-1,-1],"split_conditions":[1.4567889E0,8.767919E-1,2.2509983E0,5.899199E-1,1.1073222E0,1.7985045E0,2.9066827E0,-3.0141136E-2,-2.0291232E-2,-1.1024146E-2,-8.341021E-4,1.1880263E-2,2.7219499E-2,5.1261544E-2,7.819679E-2],"split_indices":[3,3,3,3,3,3,3,0,0,0,0,0,0,0,0],"split_type":[0,0,0,0,0,0,0,0,0,0,0,0,0,0,0],"sum_hessian":[1.53467E5,1.04977E5,4.849E4,4.3868E4,6.1109E4,3.7096E4,1.1394E4,1.3771E4,3.0097E4,2.6918E4,3.4191E4,2.1504E4,1.5592E4,8.412E3,2.982E3],"tree_param":{"num_deleted":"0","num_feature":"11","num_nodes":"15","size_leaf_vector":"1"}},{"base_weights":[1.7833967E-4,-1.17606185E-1,2.4537466E-1,-1.9762103E-1,-4.0159877E-2,1.4357275E-1,4.809735E-1,-2.4760231E-2,-1.572757E-2,-7.6520294E-3,5.3771073E-4,9.592147E-3,2.0655503E-2,3.9939206E-2,6.5523036E-2],"categories":[],"categories_nodes":[],"categories_segments":[],"categories_sizes":[],"default_left":[0,0,0,0,0,0,0,0,0,0,0,0,0,0,0],"id":16,"left_children":[1,3,5,7,9,11,13,-1,-1,-1,-1,-1,-1,-1,-1],"loss_changes":[4.4306763E3,6.421908E2,1.1939231E3,1.0274463E2,8.719685E1,1.04310425E2,2.132644E2,0E0,0E0,0E0,0E0,0E0,0E0,0E0,0E0],"parents":[2147483647,0,0,1,1,2,2,3,3,4,4,5,5,6,6],"right_children":[2,4,6,8,10,12,14,-1,-1,-1,-1,-1,-1,-1,-1],"split_conditions":[1.4415002E0,9.383276E-1,2.100921E0,6.894301E-1,1.1940154E0,1.740943E0,2.6324096E0,-2.4760231E-2,-1.572757E-2,-7.6520294E-3,5.3771073E-4,9.592147E-3,2.0655503E-2,3.9939206E-2,6.5523036E-2],"split_indices":[3,3,3,3,3,3,3,0,0,0,0,0,0,0,0],"split_type":[0,0,0,0,0,0,0,0,0,0,0,0,0,0,0],"sum_hessian":[1.53413E5,1.03632E5,4.9781E4,5.097E4,5.2662E4,3.4762E4,1.5019E4,2.2764E4,2.8206E4,2.9281E4,2.3381E4,1.9791E4,1.4971E4,1.0232E4,4.787E3],"tree_param":{"num_deleted":"0","num_feature":"11","num_nodes":"15","size_leaf_vector":"1"}},{"base_weights":[-2.3567228E-4,-1.08601004E-1,2.1459334E-1,-1.9638947E-1,-5.2623946E-2,1.4334378E-1,4.8409522E-1,-2.5844693E-2,-1.7495152E-2,-9.36398E-3,-1.1740507E-3,1.0785147E-2,2.5848178E-2,4.2489436E-2,6.3601114E-2],"categories":[],"categories_nodes":[],"categories_segments":[],"categories_sizes":[],"default_left":[0,0,0,0,0,0,0,0,0,0,0,0,0,0,0],"id":17,"left_children":[1,3,5,7,9,11,13,-1,-1,-1,-1,-1,-1,-1,-1],"loss_changes":[3.5727375E3,5.01286E2,9.880022E2,5.2796387E1,1.04456116E2,1.6628918E2,9.6491455E1,0E0,0E0,0E0,0E0,0E0,0E0,0E0,0E0],"parents":[2147483647,0,0,1,1,2,2,3,3,4,4,5,5,6,6],"right_children":[2,4,6,8,10,12,14,-1,-1,-1,-1,-1,-1,-1,-1],"split_conditions":[1.4190946E0,8.4114915E-1,2.276825E0,5.4043347E-1,1.1073222E0,1.9462872E0,2.9066827E0,-2.5844693E-2,-1.7495152E-2,-9.36398E-3,-1.1740507E-3,1.0785147E-2,2.5848178E-2,4.2489436E-2,6.3601114E-2],"split_indices":[3,3,3,3,3,3,3,0,0,0,0,0,0,0,0],"split_type":[0,0,0,0,0,0,0,0,0,0,0,0,0,0,0],"sum_hessian":[1.53466E5,1.0201E5,5.1456E4,3.9718E4,6.2292E4,4.0698E4,1.0758E4,1.0195E4,2.9523E4,3.1095E4,3.1197E4,3.111E4,9.588E3,7.744E3,3.014E3],"tree_param":{"num_deleted":"0","num_feature":"11","num_nodes":"15","size_leaf_vector":"1"}},{"base_weights":[-4.0128198E-4,-7.364143E-2,2.6076433E-1,-1.4384294E-1,8.837592E-3,1.8409069E-1,4.541236E-1,-1.8566834E-2,-9.545845E-3,-2.5741388E-3,6.0077645E-3,1.4879325E-2,2.6644055E-2,3.9726015E-2,5.79441E-2],"categories":[],"categories_nodes":[],"categories_segments":[],"categories_sizes":[],"default_left":[0,0,0,0,0,0,0,0,0,0,0,0,0,0,0],"id":18,"left_children":[1,3,5,7,9,11,13,-1,-1,-1,-1,-1,-1,-1,-1],"loss_changes":[2.9369983E3,6.9433887E2,4.984851E2,1.3107751E2,9.769664E1,6.996039E1,6.7808716E1,0E0,0E0,0E0,0E0,0E0,0E0,0E0,0E0],"parents":[2147483647,0,0,1,1,2,2,3,3,4,4,5,5,6,6],"right_children":[2,4,6,8,10,12,14,-1,-1,-1,-1,-1,-1,-1,-1],"split_conditions":[1.6780108E0,1.0561062E0,2.3247252E0,7.988303E-1,1.3705186E0,2.0438797E0,2.9066827E0,-1.8566834E-2,-9.545845E-3,-2.5741388E-3,6.0077645E-3,1.4879325E-2,2.6644055E-2,3.9726015E-2,5.79441E-2],"split_indices":[3,3,3,3,3,3,3,0,0,0,0,0,0,0,0],"split_type":[0,0,0,0,0,0,0,0,0,0,0,0,0,0,0],"sum_hessian":[1.53544E5,1.19916E5,3.3628E4,6.4779E4,5.5137E4,2.4081E4,9.547E3,3.4743E4,3.0036E4,3.2921E4,2.2216E4,1.6858E4,7.223E3,6.57E3,2.977E3],"tree_param":{"num_deleted":"0","num_feature":"11","num_nodes":"15","size_leaf_vector":"1"}},{"base_weights":[4.645992E-4,-6.330578E-2,2.4548747E-1,-1.3844079E-1,1.5737402E-3,1.7388868E-1,4.1106534E-1,-1.9069737E-2,-1.1290268E-2,-3.6191258E-3,4.9515823E-3,1.4108181E-2,2.4217594E-2,3.5235878E-2,5.0887138E-2],"categories":[],"categories_nodes":[],"categories_segments":[],"categories_sizes":[],"default_left":[0,0,0,0,0,0,0,0,0,0,0,0,0,0,0],"id":19,"left_children":[1,3,5,7,9,11,13,-1,-1,-1,-1,-1,-1,-1,-1],"loss_changes":[2.3964995E3,5.93254E2,3.7542932E2,7.523682E1,1.18244064E2,4.950769E1,5.4718628E1,0E0,0E0,0E0,0E0,0E0,0E0,0E0,0E0],"parents":[2147483647,0,0,1,1,2,2,3,3,4,4,5,5,6,6],"right_children":[2,4,6,8,10,12,14,-1,-1,-1,-1,-1,-1,-1,-1],"split_conditions":[1.7090931E0,9.8480344E-1,2.3247252E0,6.4441544E-1,1.3180854E0,2.0438797E0,2.7954743E0,-1.9069737E-2,-1.1290268E-2,-3.6191258E-3,4.9515823E-3,1.4108181E-2,2.4217594E-2,3.5235878E-2,5.0887138E-2],"split_indices":[3,3,3,3,3,3,3,0,0,0,0,0,0,0,0],"split_type":[0,0,0,0,0,0,0,0,0,0,0,0,0,0,0],"sum_hessian":[1.53372E5,1.21699E5,3.1673E4,5.6392E4,6.5307E4,2.2113E4,9.56E3,1.851E4,3.7882E4,3.6531E4,2.8776E4,1.4939E4,7.174E3,5.977E3,3.583E3],"tree_param":{"num_deleted":"0","num_feature":"11","num_nodes":"15","size_leaf_vector":"1"}},{"base_weights":[-1.1957269E-4,2.5397693E-3,-1.7598782E-2,5.3971778E-3,-1.4250691E-2,-1.832545E-2,1.5078628E-3,9.250383E-4,-9.6348126E-4,-1.4999433E-3,2.1995741E-3,-1.748207E-3,-1.9985482E-3],"categories":[],"categories_nodes":[],"categories_segments":[],"categories_sizes":[],"default_left":[0,0,0,0,0,0,0,0,0,0,0,0,0],"id":20,"left_children":[1,3,5,7,9,11,-1,-1,-1,-1,-1,-1,-1],"loss_changes":[7.143256E0,6.399324E0,4.8214626E-1,6.602195E0,5.26777E-1,2.7444363E-2,0E0,0E0,0E0,0E0,0E0,0E0,0E0],"parents":[2147483647,0,0,1,1,2,2,3,3,4,4,5,5],"right_children":[2,4,6,8,10,12,-1,-1,-1,-1,-1,-1,-1],"split_conditions":[1E0,1E0,6E0,1E0,6E0,2E0,1.5078628E-3,9.250383E-4,-9.6348126E-4,-1.4999433E-3,2.1995741E-3,-1.748207E-3,-1.9985482E-3],"split_indices":[7,5,0,6,0,0,0,0,0,0,0,0,0],"split_type":[0,0,0,0,0,0,0,0,0,0,0,0,0],"sum_hessian":[1.53672E5,1.3338E5,2.0292E4,1.13983E5,1.9397E4,1.9851E4,4.41E2,9.0727E4,2.3256E4,1.9005E4,3.92E2,1.3171E4,6.68E3],"tree_param":{"num_deleted":"0","num_feature":"11","num_nodes":"13","size_leaf_vector":"1"}},{"base_weights":[5.7772367E-4,1.4255346E-2,-2.4931755E-2,1.7446876E-2,-1.0070082E-2,-2.7986825E-2,-1.1870803E-2,2.1683981E-3,-6.687209E-4,-1.0656322E-3,1.4197232E-3,-2.5910258E-3,-4.0001622E-3,-1.0797417E-3,-2.1730398E-3],"categories":[],"categories_nodes":[],"categories_segments":[],"categories_sizes":[],"default_left":[0,0,0,0,0,0,0,0,0,0,0,0,0,0,0],"id":21,"left_children":[1,3,5,7,9,11,13,-1,-1,-1,-1,-1,-1,-1,-1],"loss_changes":[5.359383E1,7.76301E0,2.138939E0,9.039198E0,1.6515017E-1,1.0829964E0,1.073432E-1,0E0,0E0,0E0,0E0,0E0,0E0,0E0,0E0],"parents":[2147483647,0,0,1,1,2,2,3,3,4,4,5,5,6,6],"right_children":[2,4,6,8,10,12,14,-1,-1,-1,-1,-1,-1,-1,-1],"split_conditions":[1E0,1E0,1E0,1E0,6E0,1E0,5E0,2.1683981E-3,-6.687209E-4,-1.0656322E-3,1.4197232E-3,-2.5910258E-3,-4.0001622E-3,-1.0797417E-3,-2.1730398E-3],"split_indices":[1,7,6,6,0,9,0,0,0,0,0,0,0,0,0],"split_type":[0,0,0,0,0,0,0,0,0,0,0,0,0,0,0],"sum_hessian":[1.53602E5,9.999E4,5.3612E4,8.8393E4,1.1597E4,4.3448E4,1.0164E4,7.5192E4,1.3201E4,1.1324E4,2.73E2,3.7048E4,6.4E3,9.168E3,9.96E2],"tree_param":{"num_deleted":"0","num_feature":"11","num_nodes":"15","size_leaf_vector":"1"}},{"base_weights":[-2.265937E-5,-6.360512E-2,1.993263E-1,-1.2736161E-1,-7.233782E-3,1.3983811E-1,3.7092084E-1,-1.9549826E-2,-1.1063225E-2,-4.1289213E-3,3.1743385E-3,1.05419345E-2,2.0422608E-2,3.247945E-2,4.7104705E-2],"categories":[],"categories_nodes":[],"categories_segments":[],"categories_sizes":[],"default_left":[0,0,0,0,0,0,0,0,0,0,0,0,0,0,0],"id":22,"left_children":[1,3,5,7,9,11,13,-1,-1,-1,-1,-1,-1,-1,-1],"loss_changes":[1.9453867E3,4.18223E2,3.788125E2,6.222278E1,8.198189E1,6.106006E1,4.39718E1,0E0,0E0,0E0,0E0,0E0,0E0,0E0,0E0],"parents":[2147483647,0,0,1,1,2,2,3,3,4,4,5,5,6,6],"right_children":[2,4,6,8,10,12,14,-1,-1,-1,-1,-1,-1,-1,-1],"split_conditions":[1.6191449E0,9.6932435E-1,2.3247252E0,5.4881376E-1,1.2626452E0,1.9775972E0,2.9066827E0,-1.9549826E-2,-1.1063225E-2,-4.1289213E-3,3.1743385E-3,1.05419345E-2,2.0422608E-2,3.247945E-2,4.7104705E-2],"split_indices":[3,3,3,3,3,3,3,0,0,0,0,0,0,0,0],"split_type":[0,0,0,0,0,0,0,0,0,0,0,0,0,0,0],"sum_hessian":[1.53479E5,1.16365E5,3.7114E4,5.4605E4,6.176E4,2.7561E4,9.553E3,1.0762E4,4.3843E4,3.2961E4,2.8799E4,1.7962E4,9.599E3,6.543E3,3.01E3],"tree_param":{"num_deleted":"0","num_feature":"11","num_nodes":"15","size_leaf_vector":"1"}},{"base_weights":[2.331932E-4,-6.636668E-2,1.5764205E-1,-1.3189954E-1,-2.829319E-2,9.866398E-2,3.0041763E-1,-1.7611025E-2,-1.164861E-2,-5.367981E-3,9.0920524E-4,7.01037E-3,1.4361133E-2,2.4086956E-2,3.869957E-2],"categories":[],"categories_nodes":[],"categories_segments":[],"categories_sizes":[],"default_left":[0,0,0,0,0,0,0,0,0,0,0,0,0,0,0],"id":23,"left_children":[1,3,5,7,9,11,13,-1,-1,-1,-1,-1,-1,-1,-1],"loss_changes":[1.6098745E3,2.6923364E2,3.844226E2,2.7001282E1,6.478027E1,4.1467865E1,6.871289E1,0E0,0E0,0E0,0E0,0E0,0E0,0E0,0E0],"parents":[2147483647,0,0,1,1,2,2,3,3,4,4,5,5,6,6],"right_children":[2,4,6,8,10,12,14,-1,-1,-1,-1,-1,-1,-1,-1],"split_conditions":[1.4960667E0,8.4114915E-1,2.1721854E0,5.4043347E-1,1.1940154E0,1.8221911E0,2.5652897E0,-1.7611025E-2,-1.164861E-2,-5.367981E-3,9.0920524E-4,7.01037E-3,1.4361133E-2,2.4086956E-2,3.869957E-2],"split_indices":[3,3,3,3,3,3,3,0,0,0,0,0,0,0,0],"split_type":[0,0,0,0,0,0,0,0,0,0,0,0,0,0,0],"sum_hessian":[1.53562E5,1.07907E5,4.5655E4,3.9653E4,6.8254E4,3.231E4,1.3345E4,1.0248E4,2.9405E4,4.065E4,2.7604E4,1.9758E4,1.2552E4,7.909E3,5.436E3],"tree_param":{"num_deleted":"0","num_feature":"11","num_nodes":"15","size_leaf_vector":"1"}},{"base_weights":[-1.2208862E-4,-5.590376E-2,1.511122E-1,-1.0308068E-1,-9.022257E-3,1.06319204E-1,2.9974344E-1,-1.3270967E-2,-7.4124E-3,-4.84825E-3,1.1788538E-3,7.937769E-3,1.6390359E-2,2.259767E-2,3.4585E-2],"categories":[],"categories_nodes":[],"categories_segments":[],"categories_sizes":[],"default_left":[0,0,0,0,0,0,0,0,0,0,0,0,0,0,0],"id":24,"left_children":[1,3,5,7,9,11,13,-1,-1,-1,-1,-1,-1,-1,-1],"loss_changes":[1.2971179E3,2.4843558E2,2.7580072E2,4.8024597E1,4.626775E1,4.93808E1,3.2552246E1,0E0,0E0,0E0,0E0,0E0,0E0,0E0,0E0],"parents":[2147483647,0,0,1,1,2,2,3,3,4,4,5,5,6,6],"right_children":[2,4,6,8,10,12,14,-1,-1,-1,-1,-1,-1,-1,-1],"split_conditions":[1.5555465E0,9.797759E-1,2.3247252E0,7.346264E-1,1E0,1.9613767E0,1E0,-1.3270967E-2,-7.4124E-3,-4.84825E-3,1.1788538E-3,7.937769E-3,1.6390359E-2,2.259767E-2,3.4585E-2],"split_indices":[3,3,3,3,2,3,2,0,0,0,0,0,0,0,0],"split_type":[0,0,0,0,0,0,0,0,0,0,0,0,0,0,0],"sum_hessian":[1.53756E5,1.12326E5,4.143E4,5.5986E4,5.634E4,3.1837E4,9.593E3,2.767E4,2.8316E4,1.9453E4,3.6887E4,2.1691E4,1.0146E4,3.692E3,5.901E3],"tree_param":{"num_deleted":"0","num_feature":"11","num_nodes":"15","size_leaf_vector":"1"}},{"base_weights":[-5.6682184E-4,-6.202218E-2,1.12988785E-1,-1.115492E-1,-3.392978E-2,6.575445E-2,2.2887395E-1,-1.4984046E-2,-9.8736035E-3,-7.284847E-3,-1.537827E-3,3.0788053E-3,9.095516E-3,1.8324798E-2,3.149682E-2],"categories":[],"categories_nodes":[],"categories_segments":[],"categories_sizes":[],"default_left":[0,0,0,0,0,0,0,0,0,0,0,0,0,0,0],"id":25,"left_children":[1,3,5,7,9,11,13,-1,-1,-1,-1,-1,-1,-1,-1],"loss_changes":[1.0730087E3,1.3880255E2,2.9552417E2,1.770047E1,4.596071E1,3.379831E1,6.1354736E1,0E0,0E0,0E0,0E0,0E0,0E0,0E0,0E0],"parents":[2147483647,0,0,1,1,2,2,3,3,4,4,5,5,6,6],"right_children":[2,4,6,8,10,12,14,-1,-1,-1,-1,-1,-1,-1,-1],"split_conditions":[1.3909818E0,8.093052E-1,2.080492E0,5.202528E-1,1E0,1E0,2.5652897E0,-1.4984046E-2,-9.8736035E-3,-7.284847E-3,-1.537827E-3,3.0788053E-3,9.095516E-3,1.8324798E-2,3.149682E-2],"split_indices":[3,3,3,3,2,2,3,0,0,0,0,0,0,0,0],"split_type":[0,0,0,0,0,0,0,0,0,0,0,0,0,0,0],"sum_hessian":[1.53755E5,9.9764E4,5.3991E4,3.6106E4,6.3658E4,3.8358E4,1.5633E4,9.05E3,2.7056E4,2.0548E4,4.311E4,1.6067E4,2.2291E4,1.022E4,5.413E3],"tree_param":{"num_deleted":"0","num_feature":"11","num_nodes":"15","size_leaf_vector":"1"}},{"base_weights":[4.154198E-5,-3.8507696E-2,1.4739603E-1,-7.666119E-2,1.0335584E-2,1.08322494E-1,2.5627798E-1,-1.043703E-2,-5.510013E-3,2.7806207E-3,-1.9647717E-3,1.4513793E-2,6.409162E-3,2.241841E-2,3.359476E-2],"categories":[],"categories_nodes":[],"categories_segments":[],"categories_sizes":[],"default_left":[0,0,0,0,0,0,0,0,0,0,0,0,0,0,0],"id":26,"left_children":[1,3,5,7,9,11,13,-1,-1,-1,-1,-1,-1,-1,-1],"loss_changes":[8.724361E2,2.268665E2,1.3546649E2,4.082852E1,2.796819E1,3.8158264E1,2.1428284E1,0E0,0E0,0E0,0E0,0E0,0E0,0E0,0E0],"parents":[2147483647,0,0,1,1,2,2,3,3,4,4,5,5,6,6],"right_children":[2,4,6,8,10,12,14,-1,-1,-1,-1,-1,-1,-1,-1],"split_conditions":[1.7090931E0,1.0875723E0,2.3723617E0,7.56333E-1,1E0,1E0,3.006376E0,-1.043703E-2,-5.510013E-3,2.7806207E-3,-1.9647717E-3,1.4513793E-2,6.409162E-3,2.241841E-2,3.359476E-2],"split_indices":[3,3,3,3,1,1,3,0,0,0,0,0,0,0,0],"split_type":[0,0,0,0,0,0,0,0,0,0,0,0,0,0,0],"sum_hessian":[1.53585E5,1.21738E5,3.1847E4,6.8348E4,5.339E4,2.3438E4,8.409E3,2.9908E4,3.844E4,3.3734E4,1.9656E4,1.279E4,1.0648E4,5.997E3,2.412E3],"tree_param":{"num_deleted":"0","num_feature":"11","num_nodes":"15","size_leaf_vector":"1"}},{"base_weights":[2.0415419E-4,1.3214176E-2,-2.4039065E-2,9.687517E-3,3.2631278E-2,-2.7254423E-2,-1.0514949E-2,5.7147746E-4,2.7537409E-3,3.1617626E-3,7.76123E-3,-2.502504E-3,-4.0100175E-3,-9.166791E-4,-2.2876218E-3],"categories":[],"categories_nodes":[],"categories_segments":[],"categories_sizes":[],"default_left":[0,0,0,0,0,0,0,0,0,0,0,0,0,0,0],"id":27,"left_children":[1,3,5,7,9,11,13,-1,-1,-1,-1,-1,-1,-1,-1],"loss_changes":[4.8458797E1,6.8463383E0,2.3329334E0,6.000291E0,6.982517E-1,1.2404327E0,1.7157257E-1,0E0,0E0,0E0,0E0,0E0,0E0,0E0,0E0],"parents":[2147483647,0,0,1,1,2,2,3,3,4,4,5,5,6,6],"right_children":[2,4,6,8,10,12,14,-1,-1,-1,-1,-1,-1,-1,-1],"split_conditions":[1E0,1E0,1E0,1E0,6E0,1E0,5E0,5.7147746E-4,2.7537409E-3,3.1617626E-3,7.76123E-3,-2.502504E-3,-4.0100175E-3,-9.166791E-4,-2.2876218E-3],"split_indices":[1,10,6,8,0,9,0,0,0,0,0,0,0,0,0],"split_type":[0,0,0,0,0,0,0,0,0,0,0,0,0,0,0],"sum_hessian":[1.53638E5,9.9983E4,5.3655E4,8.4616E4,1.5367E4,4.3348E4,1.0307E4,6.9213E4,1.5403E4,1.503E4,3.37E2,3.694E4,6.408E3,9.295E3,1.012E3],"tree_param":{"num_deleted":"0","num_feature":"11","num_nodes":"15","size_leaf_vector":"1"}},{"base_weights":[-3.1037084E-4,-4.8939645E-2,9.61307E-2,-8.6639464E-2,-2.377401E-2,5.4175805E-2,1.8797047E-1,-1.2575978E-2,-7.5588985E-3,-9.025938E-4,-5.397556E-3,7.3467577E-3,2.785501E-3,1.5840901E-2,2.9001698E-2],"categories":[],"categories_nodes":[],"categories_segments":[],"categories_sizes":[],"default_left":[0,0,0,0,0,0,0,0,0,0,0,0,0,0,0],"id":28,"left_children":[1,3,5,7,9,11,13,-1,-1,-1,-1,-1,-1,-1,-1],"loss_changes":[7.1990753E2,9.681398E1,1.9825638E2,1.7649902E1,2.7257992E1,1.7933563E1,4.8627563E1,0E0,0E0,0E0,0E0,0E0,0E0,0E0,0E0],"parents":[2147483647,0,0,1,1,2,2,3,3,4,4,5,5,6,6],"right_children":[2,4,6,8,10,12,14,-1,-1,-1,-1,-1,-1,-1,-1],"split_conditions":[1.4190946E0,8.5114825E-1,2.0614069E0,5.202528E-1,1E0,1E0,2.7954743E0,-1.2575978E-2,-7.5588985E-3,-9.025938E-4,-5.397556E-3,7.3467577E-3,2.785501E-3,1.5840901E-2,2.9001698E-2],"split_indices":[3,3,3,3,1,1,3,0,0,0,0,0,0,0,0],"split_type":[0,0,0,0,0,0,0,0,0,0,0,0,0,0,0],"sum_hessian":[1.53501E5,1.02046E5,5.1455E4,4.0849E4,6.1197E4,3.5321E4,1.6134E4,8.995E3,3.1854E4,4.1119E4,2.0078E4,2.0381E4,1.494E4,1.2512E4,3.622E3],"tree_param":{"num_deleted":"0","num_feature":"11","num_nodes":"15","size_leaf_vector":"1"}},{"base_weights":[1.2469162E-4,-3.0929714E-2,1.2460252E-1,-6.3159145E-2,8.625731E-3,9.217688E-2,2.1028076E-1,-4.9662953E-3,-9.549393E-3,-1.3475196E-3,2.4218005E-3,1.2340783E-2,5.441095E-3,2.455208E-2,1.5550365E-2],"categories":[],"categories_nodes":[],"categories_segments":[],"categories_sizes":[],"default_left":[0,0,0,0,0,0,0,0,0,0,0,0,0,0,0],"id":29,"left_children":[1,3,5,7,9,11,13,-1,-1,-1,-1,-1,-1,-1,-1],"loss_changes":[5.9380023E2,1.567318E2,8.518991E1,2.9558502E1,1.902176E1,2.623877E1,1.6215363E1,0E0,0E0,0E0,0E0,0E0,0E0,0E0,0E0],"parents":[2147483647,0,0,1,1,2,2,3,3,4,4,5,5,6,6],"right_children":[2,4,6,8,10,12,14,-1,-1,-1,-1,-1,-1,-1,-1],"split_conditions":[1.7293884E0,1.0824288E0,2.3723617E0,1E0,1.293572E0,1E0,1E0,-4.9662953E-3,-9.549393E-3,-1.3475196E-3,2.4218005E-3,1.2340783E-2,5.441095E-3,2.455208E-2,1.5550365E-2],"split_indices":[3,3,3,1,3,1,1,0,0,0,0,0,0,0,0],"split_type":[0,0,0,0,0,0,0,0,0,0,0,0,0,0,0],"sum_hessian":[1.5361E5,1.2294E5,3.067E4,6.7743E4,5.5197E4,2.2251E4,8.419E3,4.7796E4,1.9947E4,2.2833E4,3.2364E4,1.2178E4,1.0073E4,5.121E3,3.298E3],"tree_param":{"num_deleted":"0","num_feature":"11","num_nodes":"15","size_leaf_vector":"1"}},{"base_weights":[1.3018103E-4,-1.909401E-2,1.0417154E-2,-1.7154897E-2,-3.596661E-2,1.4578041E-2,-2.157131E-2,-1.5007558E-3,-3.1143182E-3,-3.4329917E-3,-3.953647E-3,1.8139331E-3,-4.6480098E-4,-2.2309038E-3,9.009765E-4],"categories":[],"categories_nodes":[],"categories_segments":[],"categories_sizes":[],"default_left":[0,0,0,0,0,0,0,0,0,0,0,0,0,0,0],"id":30,"left_children":[1,3,5,7,9,11,13,-1,-1,-1,-1,-1,-1,-1,-1],"loss_changes":[3.0374754E1,1.7510986E0,1.3317672E1,1.442028E0,3.0882835E-2,6.0623074E0,2.6003027E-1,0E0,0E0,0E0,0E0,0E0,0E0,0E0,0E0],"parents":[2147483647,0,0,1,1,2,2,3,3,4,4,5,5,6,6],"right_children":[2,4,6,8,10,12,14,-1,-1,-1,-1,-1,-1,-1,-1],"split_conditions":[1E0,1E0,1E0,1E0,2E0,1E0,6E0,-1.5007558E-3,-3.1143182E-3,-3.4329917E-3,-3.953647E-3,1.8139331E-3,-4.6480098E-4,-2.2309038E-3,9.009765E-4],"split_indices":[2,5,7,9,0,5,0,0,0,0,0,0,0,0,0],"split_type":[0,0,0,0,0,0,0,0,0,0,0,0,0,0,0],"sum_hessian":[1.53593E5,5.3539E4,1.00054E5,4.8022E4,5.517E3,8.8538E4,1.1516E4,4.1633E4,6.389E3,3.79E3,1.727E3,7.4701E4,1.3837E4,1.1245E4,2.71E2],"tree_param":{"num_deleted":"0","num_feature":"11","num_nodes":"15","size_leaf_vector":"1"}},{"base_weights":[-4.2697863E-4,-1.8048348E-2,9.019486E-3,-2.0972323E-2,-5.4462114E-3,1.2603308E-2,-1.8100144E-2,-2.3675063E-3,-9.744181E-4,-3.9334098E-4,-1.929033E-3,1.6225834E-3,-8.1906765E-4,-1.8623284E-3,4.394055E-4],"categories":[],"categories_nodes":[],"categories_segments":[],"categories_sizes":[],"default_left":[0,0,0,0,0,0,0,0,0,0,0,0,0,0,0],"id":31,"left_children":[1,3,5,7,9,11,13,-1,-1,-1,-1,-1,-1,-1,-1],"loss_changes":[2.5559042E1,1.9744396E0,9.715437E0,1.3196716E0,2.1130598E-1,6.6508827E0,1.3738632E-1,0E0,0E0,0E0,0E0,0E0,0E0,0E0,0E0],"parents":[2147483647,0,0,1,1,2,2,3,3,4,4,5,5,6,6],"right_children":[2,4,6,8,10,12,14,-1,-1,-1,-1,-1,-1,-1,-1],"split_conditions":[1E0,1E0,1E0,1E0,5E0,1E0,6E0,-2.3675063E-3,-9.744181E-4,-3.9334098E-4,-1.929033E-3,1.6225834E-3,-8.1906765E-4,-1.8623284E-3,4.394055E-4],"split_indices":[2,6,7,4,0,6,0,0,0,0,0,0,0,0,0],"split_type":[0,0,0,0,0,0,0,0,0,0,0,0,0,0,0],"sum_hessian":[1.53543E5,5.3585E4,9.9958E4,4.3493E4,1.0092E4,8.8291E4,1.1667E4,3.5054E4,8.439E3,9.099E3,9.93E2,7.5192E4,1.3099E4,1.1402E4,2.65E2],"tree_param":{"num_deleted":"0","num_feature":"11","num_nodes":"15","size_leaf_vector":"1"}},{"base_weights":[-2.3709613E-4,-3.6732312E-2,8.621015E-2,-7.615109E-2,-1.6912337E-2,5.4016948E-2,1.6025595E-1,-1.1089029E-2,-6.641642E-3,-3.1810428E-3,6.968973E-4,4.09941E-3,8.71466E-3,1.0564506E-2,1.984982E-2],"categories":[],"categories_nodes":[],"categories_segments":[],"categories_sizes":[],"default_left":[0,0,0,0,0,0,0,0,0,0,0,0,0,0,0],"id":32,"left_children":[1,3,5,7,9,11,13,-1,-1,-1,-1,-1,-1,-1,-1],"loss_changes":[4.82938E2,8.409169E1,1.0830994E2,1.2170975E1,2.5483038E1,1.3661064E1,2.8734772E1,0E0,0E0,0E0,0E0,0E0,0E0,0E0,0E0],"parents":[2147483647,0,0,1,1,2,2,3,3,4,4,5,5,6,6],"right_children":[2,4,6,8,10,12,14,-1,-1,-1,-1,-1,-1,-1,-1],"split_conditions":[1.4960667E0,8.093052E-1,2.1479154E0,5.0011456E-1,1.1940154E0,1.8875486E0,1E0,-1.1089029E-2,-6.641642E-3,-3.1810428E-3,6.968973E-4,4.09941E-3,8.71466E-3,1.0564506E-2,1.984982E-2],"split_indices":[3,3,3,3,3,3,2,0,0,0,0,0,0,0,0],"split_type":[0,0,0,0,0,0,0,0,0,0,0,0,0,0,0],"sum_hessian":[1.53073E5,1.07634E5,4.5439E4,3.6011E4,7.1623E4,3.1671E4,1.3768E4,7.88E3,2.8131E4,4.4107E4,2.7516E4,2.2736E4,8.935E3,5.672E3,8.096E3],"tree_param":{"num_deleted":"0","num_feature":"11","num_nodes":"15","size_leaf_vector":"1"}},{"base_weights":[-3.4747165E-4,-3.8891204E-2,6.580875E-2,-7.087695E-2,-2.248194E-2,3.5281584E-2,1.3090664E-1,-1.00195315E-2,-6.180917E-3,-3.2907277E-3,-4.2086994E-4,2.4692982E-3,5.678844E-3,1.1184748E-2,2.2510571E-2],"categories":[],"categories_nodes":[],"categories_segments":[],"categories_sizes":[],"default_left":[0,0,0,0,0,0,0,0,0,0,0,0,0,0,0],"id":33,"left_children":[1,3,5,7,9,11,13,-1,-1,-1,-1,-1,-1,-1,-1],"loss_changes":[3.9196674E2,5.0977783E1,1.124521E2,8.749115E0,1.2229691E1,8.771801E0,3.2407898E1,0E0,0E0,0E0,0E0,0E0,0E0,0E0,0E0],"parents":[2147483647,0,0,1,1,2,2,3,3,4,4,5,5,6,6],"right_children":[2,4,6,8,10,12,14,-1,-1,-1,-1,-1,-1,-1,-1],"split_conditions":[1.3635539E0,7.8249496E-1,2.0084927E0,5.0011456E-1,1.134326E0,1.7293884E0,2.9066827E0,-1.00195315E-2,-6.180917E-3,-3.2907277E-3,-4.2086994E-4,2.4692982E-3,5.678844E-3,1.1184748E-2,2.2510571E-2],"split_indices":[3,3,3,3,3,3,3,0,0,0,0,0,0,0,0],"split_type":[0,0,0,0,0,0,0,0,0,0,0,0,0,0,0],"sum_hessian":[1.53716E5,9.7128E4,5.6588E4,3.2932E4,6.4196E4,3.8524E4,1.8064E4,7.777E3,2.5155E4,4.0875E4,2.3321E4,2.5816E4,1.2708E4,1.5026E4,3.038E3],"tree_param":{"num_deleted":"0","num_feature":"11","num_nodes":"15","size_leaf_vector":"1"}},{"base_weights":[-3.9156008E-4,-3.4673408E-2,6.0584202E-2,-5.868298E-2,-1.585854E-2,3.4478877E-2,1.2419259E-1,-8.191633E-3,-4.84586E-3,-2.5284397E-3,-5.6498073E-5,2.3506784E-3,5.737422E-3,9.735538E-3,1.7755475E-2],"categories":[],"categories_nodes":[],"categories_segments":[],"categories_sizes":[],"default_left":[0,0,0,0,0,0,0,0,0,0,0,0,0,0,0],"id":34,"left_children":[1,3,5,7,9,11,13,-1,-1,-1,-1,-1,-1,-1,-1],"loss_changes":[3.2112347E2,4.442063E1,9.17991E1,1.0258759E1,7.9476776E0,9.846077E0,2.3020767E1,0E0,0E0,0E0,0E0,0E0,0E0,0E0,0E0],"parents":[2147483647,0,0,1,1,2,2,3,3,4,4,5,5,6,6],"right_children":[2,4,6,8,10,12,14,-1,-1,-1,-1,-1,-1,-1,-1],"split_conditions":[1.3775187E0,8.714998E-1,2.0614069E0,5.822824E-1,1.1658411E0,1.7636703E0,2.5652897E0,-8.191633E-3,-4.84586E-3,-2.5284397E-3,-5.6498073E-5,2.3506784E-3,5.737422E-3,9.735538E-3,1.7755475E-2],"split_indices":[3,3,3,3,3,3,3,0,0,0,0,0,0,0,0],"split_type":[0,0,0,0,0,0,0,0,0,0,0,0,0,0,0],"sum_hessian":[1.53619E5,9.8334E4,5.5285E4,4.3202E4,5.5132E4,3.9199E4,1.6086E4,1.32E4,3.0002E4,3.4109E4,2.1023E4,2.6501E4,1.2698E4,1.0705E4,5.381E3],"tree_param":{"num_deleted":"0","num_feature":"11","num_nodes":"15","size_leaf_vector":"1"}},{"base_weights":[-3.1007006E-4,-1.8130329E-2,9.265512E-3,-2.0855818E-2,-6.45202E-3,1.2486375E-2,-1.5364939E-2,-2.3226303E-3,-1.1008404E-3,-4.9778185E-4,-2.0475453E-3,1.5971995E-3,-7.450601E-4,-1.1580697E-3,-2.281073E-3],"categories":[],"categories_nodes":[],"categories_segments":[],"categories_sizes":[],"default_left":[0,0,0,0,0,0,0,0,0,0,0,0,0,0,0],"id":35,"left_children":[1,3,5,7,9,11,13,-1,-1,-1,-1,-1,-1,-1,-1],"loss_changes":[2.6178804E1,1.7066383E0,7.9168997E0,1.0146103E0,2.096914E-1,6.1330585E0,3.249228E-1,0E0,0E0,0E0,0E0,0E0,0E0,0E0,0E0],"parents":[2147483647,0,0,1,1,2,2,3,3,4,4,5,5,6,6],"right_children":[2,4,6,8,10,12,14,-1,-1,-1,-1,-1,-1,-1,-1],"split_conditions":[1E0,1E0,1E0,1E0,5E0,1E0,2E0,-2.3226303E-3,-1.1008404E-3,-4.9778185E-4,-2.0475453E-3,1.5971995E-3,-7.450601E-4,-1.1580697E-3,-2.281073E-3],"split_indices":[2,6,7,4,0,6,0,0,0,0,0,0,0,0,0],"split_type":[0,0,0,0,0,0,0,0,0,0,0,0,0,0,0],"sum_hessian":[1.53414E5,5.3622E4,9.9792E4,4.3475E4,1.0147E4,8.8252E4,1.154E4,3.5039E4,8.436E3,9.183E3,9.64E2,7.5119E4,1.3133E4,7.653E3,3.887E3],"tree_param":{"num_deleted":"0","num_feature":"11","num_nodes":"15","size_leaf_vector":"1"}},{"base_weights":[-2.2172145E-4,-3.1896904E-2,5.418898E-2,-5.9526958E-2,-1.9875104E-2,3.8772434E-2,1.4257783E-1,7.49007E-3,-6.2303175E-3,-9.4743737E-4,-4.2144726E-3,2.5884262E-3,6.8849586E-3,1.3283108E-2,2.6672313E-2],"categories":[],"categories_nodes":[],"categories_segments":[],"categories_sizes":[],"default_left":[0,0,0,0,0,0,0,0,0,0,0,0,0,0,0],"id":36,"left_children":[1,3,5,7,9,11,13,-1,-1,-1,-1,-1,-1,-1,-1],"loss_changes":[2.6516083E2,3.2299347E1,7.7134125E1,1.1007347E1,1.5694656E1,1.8683998E1,1.0137131E1,0E0,0E0,0E0,0E0,0E0,0E0,0E0,0E0],"parents":[2147483647,0,0,1,1,2,2,3,3,4,4,5,5,6,6],"right_children":[2,4,6,8,10,12,14,-1,-1,-1,-1,-1,-1,-1,-1],"split_conditions":[1.3635539E0,7.508381E-1,2.3723617E0,1.9853523E-1,1E0,1.8875486E0,3.1143436E0,7.49007E-3,-6.2303175E-3,-9.4743737E-4,-4.2144726E-3,2.5884262E-3,6.8849586E-3,1.3283108E-2,2.6672313E-2],"split_indices":[3,3,3,3,1,3,3,0,0,0,0,0,0,0,0],"split_type":[0,0,0,0,0,0,0,0,0,0,0,0,0,0,0],"sum_hessian":[1.53851E5,9.7242E4,5.6609E4,2.9481E4,6.7761E4,4.8203E4,8.406E3,5.96E2,2.8885E4,4.619E4,2.1571E4,3.3745E4,1.4458E4,7.796E3,6.1E2],"tree_param":{"num_deleted":"0","num_feature":"11","num_nodes":"15","size_leaf_vector":"1"}},{"base_weights":[-3.8525157E-4,-3.081919E-2,4.6564512E-2,-5.2278794E-2,-1.7977983E-2,2.7228314E-2,1.05415694E-1,-7.821128E-3,-4.4869087E-3,-3.901908E-3,-8.089244E-4,1.9008102E-3,4.8831725E-3,5.635443E-3,1.3994112E-2],"categories":[],"categories_nodes":[],"categories_segments":[],"categories_sizes":[],"default_left":[0,0,0,0,0,0,0,0,0,0,0,0,0,0,0],"id":37,"left_children":[1,3,5,7,9,11,13,-1,-1,-1,-1,-1,-1,-1,-1],"loss_changes":[2.196782E2,2.5703415E1,6.880376E1,6.706444E0,1.2142435E1,8.081482E0,2.532042E1,0E0,0E0,0E0,0E0,0E0,0E0,0E0,0E0],"parents":[2147483647,0,0,1,1,2,2,3,3,4,4,5,5,6,6],"right_children":[2,4,6,8,10,12,14,-1,-1,-1,-1,-1,-1,-1,-1],"split_conditions":[1.3180854E0,7.988303E-1,2.100921E0,5.0011456E-1,1E0,1.7858949E0,1E0,-7.821128E-3,-4.4869087E-3,-3.901908E-3,-8.089244E-4,1.9008102E-3,4.8831725E-3,5.635443E-3,1.3994112E-2],"split_indices":[3,3,3,3,2,3,2,0,0,0,0,0,0,0,0],"split_type":[0,0,0,0,0,0,0,0,0,0,0,0,0,0,0],"sum_hessian":[1.53741E5,9.3277E4,6.0464E4,3.4919E4,5.8358E4,4.5512E4,1.4952E4,7.758E3,2.7161E4,1.8657E4,3.9701E4,3.2969E4,1.2543E4,6.177E3,8.775E3],"tree_param":{"num_deleted":"0","num_feature":"11","num_nodes":"15","size_leaf_vector":"1"}},{"base_weights":[5.893379E-4,-1.7603464E-2,6.420822E-2,-3.5566024E-2,5.217809E-3,4.8569284E-2,1.2323594E-1,-2.7080164E-3,-5.595723E-3,1.4503356E-3,-1.1179204E-3,7.1776914E-3,1.9603993E-3,1.0959095E-2,1.9011972E-2],"categories":[],"categories_nodes":[],"categories_segments":[],"categories_sizes":[],"default_left":[0,0,0,0,0,0,0,0,0,0,0,0,0,0,0],"id":38,"left_children":[1,3,5,7,9,11,13,-1,-1,-1,-1,-1,-1,-1,-1],"loss_changes":[1.7781567E2,4.8973927E1,3.153186E1,1.1566177E1,8.011681E0,1.8155148E1,6.5090256E0,0E0,0E0,0E0,0E0,0E0,0E0,0E0,0E0],"parents":[2147483647,0,0,1,1,2,2,3,3,4,4,5,5,6,6],"right_children":[2,4,6,8,10,12,14,-1,-1,-1,-1,-1,-1,-1,-1],"split_conditions":[1.6680306E0,1.0722737E0,2.4258535E0,1E0,1E0,1E0,3.0783274E0,-2.7080164E-3,-5.595723E-3,1.4503356E-3,-1.1179204E-3,7.1776914E-3,1.9603993E-3,1.0959095E-2,1.9011972E-2],"split_indices":[3,3,3,1,1,1,3,0,0,0,0,0,0,0,0],"split_type":[0,0,0,0,0,0,0,0,0,0,0,0,0,0,0],"sum_hessian":[1.53631E5,1.19468E5,3.4163E4,6.685E4,5.2618E4,2.7009E4,7.154E3,4.7207E4,1.9643E4,3.3594E4,1.9024E4,1.4994E4,1.2015E4,5.944E3,1.21E3],"tree_param":{"num_deleted":"0","num_feature":"11","num_nodes":"15","size_leaf_vector":"1"}},{"base_weights":[1.4083658E-4,-1.4264767E-2,6.562383E-2,-3.2902002E-2,5.8682207E-3,5.1979247E-2,1.2145058E-1,-5.0353943E-3,-2.4266937E-3,-8.194935E-4,1.2977561E-3,7.862358E-3,1.9676469E-3,1.1136974E-2,2.0402718E-2],"categories":[],"categories_nodes":[],"categories_segments":[],"categories_sizes":[],"default_left":[0,0,0,0,0,0,0,0,0,0,0,0,0,0,0],"id":39,"left_children":[1,3,5,7,9,11,13,-1,-1,-1,-1,-1,-1,-1,-1],"loss_changes":[1.4475655E2,4.71969E1,2.1071587E1,9.84211E0,6.045483E0,1.9138393E1,4.5007553E0,0E0,0E0,0E0,0E0,0E0,0E0,0E0,0E0],"parents":[2147483647,0,0,1,1,2,2,3,3,4,4,5,5,6,6],"right_children":[2,4,6,8,10,12,14,-1,-1,-1,-1,-1,-1,-1,-1],"split_conditions":[1.7858949E0,1.0613061E0,2.5652897E0,6.768604E-1,1.2448261E0,1E0,3.1143436E0,-5.0353943E-3,-2.4266937E-3,-8.194935E-4,1.2977561E-3,7.862358E-3,1.9676469E-3,1.1136974E-2,2.0402718E-2],"split_indices":[3,3,3,3,3,1,3,0,0,0,0,0,0,0,0],"split_type":[0,0,0,0,0,0,0,0,0,0,0,0,0,0,0],"sum_hessian":[1.53452E5,1.25782E5,2.767E4,6.5317E4,6.0465E4,2.2237E4,5.433E3,2.1619E4,4.3698E4,2.0303E4,4.0162E4,1.2185E4,1.0052E4,4.844E3,5.89E2],"tree_param":{"num_deleted":"0","num_feature":"11","num_nodes":"15","size_leaf_vector":"1"}},{"base_weights":[4.0694675E-4,-1.698439E-2,4.489002E-2,-3.2721434E-2,-3.1333293E-3,2.7864095E-2,8.308219E-2,-2.5085846E-3,-5.1415525E-3,4.891659E-4,-1.8524992E-3,3.929802E-3,1.3285176E-3,1.0947506E-2,4.4238768E-3],"categories":[],"categories_nodes":[],"categories_segments":[],"categories_sizes":[],"default_left":[0,0,0,0,0,0,0,0,0,0,0,0,0,0,0],"id":40,"left_children":[1,3,5,7,9,11,13,-1,-1,-1,-1,-1,-1,-1,-1],"loss_changes":[1.1891315E2,2.4087416E1,2.80914E1,7.3828163E0,7.2599792E0,4.9809704E0,1.3651695E1,0E0,0E0,0E0,0E0,0E0,0E0,0E0,0E0],"parents":[2147483647,0,0,1,1,2,2,3,3,4,4,5,5,6,6],"right_children":[2,4,6,8,10,12,14,-1,-1,-1,-1,-1,-1,-1,-1],"split_conditions":[1.5298625E0,9.433226E-1,2.1721854E0,1E0,1E0,1E0,1E0,-2.5085846E-3,-5.1415525E-3,4.891659E-4,-1.8524992E-3,3.929802E-3,1.3285176E-3,1.0947506E-2,4.4238768E-3],"split_indices":[3,3,3,1,1,1,1,0,0,0,0,0,0,0,0],"split_type":[0,0,0,0,0,0,0,0,0,0,0,0,0,0,0],"sum_hessian":[1.53708E5,1.10505E5,4.3203E4,5.173E4,5.8775E4,2.9883E4,1.332E4,3.673E4,1.5E4,3.8633E4,2.0142E4,1.6747E4,1.3136E4,7.93E3,5.39E3],"tree_param":{"num_deleted":"0","num_feature":"11","num_nodes":"15","size_leaf_vector":"1"}},{"base_weights":[1.8622642E-4,-1.8957838E-2,3.262573E-2,-4.279096E-2,-1.2078705E-2,2.265428E-2,8.595005E-2,7.1927793E-3,-4.599781E-3,-5.246237E-4,-2.6876684E-3,3.4685272E-3,6.1363156E-4,6.9079637E-3,1.3157743E-2],"categories":[],"categories_nodes":[],"categories_segments":[],"categories_sizes":[],"default_left":[0,0,0,0,0,0,0,0,0,0,0,0,0,0,0],"id":41,"left_children":[1,3,5,7,9,11,13,-1,-1,-1,-1,-1,-1,-1,-1],"loss_changes":[9.5430885E1,1.5843239E1,3.0322086E1,7.9661903E0,7.582156E0,9.548048E0,6.9063644E0,0E0,0E0,0E0,0E0,0E0,0E0,0E0,0E0],"parents":[2147483647,0,0,1,1,2,2,3,3,4,4,5,5,6,6],"right_children":[2,4,6,8,10,12,14,-1,-1,-1,-1,-1,-1,-1,-1],"split_conditions":[1.3567194E0,6.768604E-1,2.3498132E0,1.9853523E-1,1E0,1E0,3.006376E0,7.1927793E-3,-4.599781E-3,-5.246237E-4,-2.6876684E-3,3.4685272E-3,6.1363156E-4,6.9079637E-3,1.3157743E-2],"split_indices":[3,3,3,3,1,1,3,0,0,0,0,0,0,0,0],"split_type":[0,0,0,0,0,0,0,0,0,0,0,0,0,0,0],"sum_hessian":[1.53665E5,9.6636E4,5.7029E4,2.1644E4,7.4992E4,4.8046E4,8.983E3,5.88E2,2.1056E4,5.1305E4,2.3687E4,2.7798E4,2.0248E4,6.56E3,2.423E3],"tree_param":{"num_deleted":"0","num_feature":"11","num_nodes":"15","size_leaf_vector":"1"}},{"base_weights":[-1.3597513E-5,-9.447506E-3,5.5602994E-2,-2.3288066E-2,8.257936E-3,7.598485E-2,2.9440029E-2,-4.7408207E-3,-1.8346828E-3,1.5190331E-3,-3.0498122E-4,5.167141E-3,9.323989E-3,1.9741475E-3,1.5766654E-2],"categories":[],"categories_nodes":[],"categories_segments":[],"categories_sizes":[],"default_left":[0,0,0,0,0,0,0,0,0,0,0,0,0,0,0],"id":42,"left_children":[1,3,5,7,9,11,13,-1,-1,-1,-1,-1,-1,-1,-1],"loss_changes":[8.07223E1,3.2234E1,1.189563E1,8.798084E0,4.524076E0,5.256508E0,1.2149458E1,0E0,0E0,0E0,0E0,0E0,0E0,0E0,0E0],"parents":[2147483647,0,0,1,1,2,2,3,3,4,4,5,5,6,6],"right_children":[2,4,6,8,10,12,14,-1,-1,-1,-1,-1,-1,-1,-1],"split_conditions":[1.9013686E0,1.134326E0,1E0,5.7425064E-1,1E0,2.2239969E0,3.006376E0,-4.7408207E-3,-1.8346828E-3,1.5190331E-3,-3.0498122E-4,5.167141E-3,9.323989E-3,1.9741475E-3,1.5766654E-2],"split_indices":[3,3,1,3,1,3,3,0,0,0,0,0,0,0,0],"split_type":[0,0,0,0,0,0,0,0,0,0,0,0,0,0,0],"sum_hessian":[1.53848E5,1.31537E5,2.2311E4,7.3826E4,5.7711E4,1.254E4,9.771E3,1.2551E4,6.1275E4,3.5777E4,2.1934E4,5.207E3,7.333E3,9.085E3,6.86E2],"tree_param":{"num_deleted":"0","num_feature":"11","num_nodes":"15","size_leaf_vector":"1"}},{"base_weights":[8.089538E-5,-1.1775968E-2,3.8539227E-2,-2.289969E-2,2.5203507E-3,3.0939084E-2,8.786779E-2,-1.614859E-3,-3.9055904E-3,6.28793E-4,-2.2211093E-3,4.5980904E-3,1.2236926E-3,7.887277E-3,1.5262321E-2],"categories":[],"categories_nodes":[],"categories_segments":[],"categories_sizes":[],"default_left":[0,0,0,0,0,0,0,0,0,0,0,0,0,0,0],"id":43,"left_children":[1,3,5,7,9,11,13,-1,-1,-1,-1,-1,-1,-1,-1],"loss_changes":[7.01316E1,1.869478E1,1.3584938E1,7.2105713E0,4.7934785E0,8.8344E0,2.8059769E0,0E0,0E0,0E0,0E0,0E0,0E0,0E0,0E0],"parents":[2147483647,0,0,1,1,2,2,3,3,4,4,5,5,6,6],"right_children":[2,4,6,8,10,12,14,-1,-1,-1,-1,-1,-1,-1,-1],"split_conditions":[1.6383501E0,1.066634E0,2.6324096E0,1E0,1E0,1E0,3.1143436E0,-1.614859E-3,-3.9055904E-3,6.28793E-4,-2.2211093E-3,4.5980904E-3,1.2236926E-3,7.887277E-3,1.5262321E-2],"split_indices":[3,3,3,1,7,1,3,0,0,0,0,0,0,0,0],"split_type":[0,0,0,0,0,0,0,0,0,0,0,0,0,0,0],"sum_hessian":[1.53797E5,1.17555E5,3.6242E4,6.6113E4,5.1442E4,3.1405E4,4.837E3,4.663E4,1.9483E4,4.4642E4,6.8E3,1.7405E4,1.4E4,4.249E3,5.88E2],"tree_param":{"num_deleted":"0","num_feature":"11","num_nodes":"15","size_leaf_vector":"1"}},{"base_weights":[1.5432337E-4,5.527185E-3,-9.873089E-3,9.079503E-3,-2.1286031E-2,-1.2755733E-2,2.4439397E-3,1.2641759E-3,-1.1287155E-3,-1.8705657E-3,-2.631194E-3,-1.5247335E-3,-2.3241248E-4,4.1422478E-4,-1.35809E-3],"categories":[],"categories_nodes":[],"categories_segments":[],"categories_sizes":[],"default_left":[0,0,0,0,0,0,0,0,0,0,0,0,0,0,0],"id":44,"left_children":[1,3,5,7,9,11,13,-1,-1,-1,-1,-1,-1,-1,-1],"loss_changes":[8.273776E0,9.524433E0,1.9023514E0,6.4061275E0,1.5121603E-1,1.1284342E0,2.7661622E-1,0E0,0E0,0E0,0E0,0E0,0E0,0E0,0E0],"parents":[2147483647,0,0,1,1,2,2,3,3,4,4,5,5,6,6],"right_children":[2,4,6,8,10,12,14,-1,-1,-1,-1,-1,-1,-1,-1],"split_conditions":[1E0,1E0,1E0,1E0,2E0,1E0,5E0,1.2641759E-3,-1.1287155E-3,-1.8705657E-3,-2.631194E-3,-1.5247335E-3,-2.3241248E-4,4.1422478E-4,-1.35809E-3],"split_indices":[1,7,6,6,0,4,0,0,0,0,0,0,0,0,0],"split_type":[0,0,0,0,0,0,0,0,0,0,0,0,0,0,0],"sum_hessian":[1.53569E5,9.9992E4,5.3577E4,8.8295E4,1.1697E4,4.3416E4,1.0161E4,7.5151E4,1.3144E4,7.732E3,3.965E3,3.5045E4,8.371E3,9.188E3,9.73E2],"tree_param":{"num_deleted":"0","num_feature":"11","num_nodes":"15","size_leaf_vector":"1"}},{"base_weights":[-1.1912575E-4,-1.0207778E-2,3.585751E-2,-2.3908459E-2,-1.8075078E-3,2.6823727E-2,6.878851E-2,8.507411E-3,-2.5350924E-3,-8.813391E-4,6.417946E-4,1.2686786E-3,3.8237886E-3,6.215706E-3,1.4210614E-2],"categories":[],"categories_nodes":[],"categories_segments":[],"categories_sizes":[],"default_left":[0,0,0,0,0,0,0,0,0,0,0,0,0,0,0],"id":45,"left_children":[1,3,5,7,9,11,13,-1,-1,-1,-1,-1,-1,-1,-1],"loss_changes":[5.5765614E1,1.3809997E1,1.000845E1,7.171898E0,4.286723E0,4.26058E0,3.5127335E0,0E0,0E0,0E0,0E0,0E0,0E0,0E0,0E0],"parents":[2147483647,0,0,1,1,2,2,3,3,4,4,5,5,6,6],"right_children":[2,4,6,8,10,12,14,-1,-1,-1,-1,-1,-1,-1,-1],"split_conditions":[1.6780108E0,8.9225626E-1,2.4258535E0,1.9853523E-1,1.2448261E0,1E0,3.1143436E0,8.507411E-3,-2.5350924E-3,-8.813391E-4,6.417946E-4,1.2686786E-3,3.8237886E-3,6.215706E-3,1.4210614E-2],"split_indices":[3,3,3,3,3,2,3,0,0,0,0,0,0,0,0],"split_type":[0,0,0,0,0,0,0,0,0,0,0,0,0,0,0],"sum_hessian":[1.53641E5,1.19993E5,3.3648E4,4.5607E4,7.4386E4,2.6406E4,7.242E3,5.95E2,4.5012E4,4.0171E4,3.4215E4,1.1797E4,1.4609E4,6.643E3,5.99E2],"tree_param":{"num_deleted":"0","num_feature":"11","num_nodes":"15","size_leaf_vector":"1"}},{"base_weights":[8.5874344E-4,-6.338627E-3,4.3646596E-2,-1.5197416E-2,6.850247E-3,5.882018E-2,2.4174778E-2,1.0545965E-2,-1.6122301E-3,9.9137E-4,-1.549443E-3,3.7484095E-3,7.1668117E-3,1.6718548E-3,1.247699E-2],"categories":[],"categories_nodes":[],"categories_segments":[],"categories_sizes":[],"default_left":[0,0,0,0,0,0,0,0,0,0,0,0,0,0,0],"id":46,"left_children":[1,3,5,7,9,11,13,-1,-1,-1,-1,-1,-1,-1,-1],"loss_changes":[4.7345745E1,1.5376263E1,6.539116E0,8.786917E0,3.6198196E0,3.4076996E0,7.27125E0,0E0,0E0,0E0,0E0,0E0,0E0,0E0,0E0],"parents":[2147483647,0,0,1,1,2,2,3,3,4,4,5,5,6,6],"right_children":[2,4,6,8,10,12,14,-1,-1,-1,-1,-1,-1,-1,-1],"split_conditions":[1.9013686E0,1.177918E0,1E0,1.9853523E-1,1E0,2.1721854E0,3.006376E0,1.0545965E-2,-1.6122301E-3,9.9137E-4,-1.549443E-3,3.7484095E-3,7.1668117E-3,1.6718548E-3,1.247699E-2],"split_indices":[3,3,1,3,5,3,3,0,0,0,0,0,0,0,0],"split_type":[0,0,0,0,0,0,0,0,0,0,0,0,0,0,0],"sum_hessian":[1.53738E5,1.31602E5,2.2136E4,7.8724E4,5.2878E4,1.244E4,9.696E3,5.98E2,7.8126E4,4.6503E4,6.375E3,4.677E3,7.763E3,9.028E3,6.68E2],"tree_param":{"num_deleted":"0","num_feature":"11","num_nodes":"15","size_leaf_vector":"1"}},{"base_weights":[-1.6223706E-4,-6.129783E-3,4.0349588E-2,-2.2229608E-2,9.427549E-4,2.0142075E-2,5.5748373E-2,-4.421132E-3,-1.7018628E-3,4.4493453E-4,-2.1885808E-3,1.3030077E-3,1.0626354E-2,2.8325228E-3,6.234733E-3],"categories":[],"categories_nodes":[],"categories_segments":[],"categories_sizes":[],"default_left":[0,0,0,0,0,0,0,0,0,0,0,0,0,0,0],"id":47,"left_children":[1,3,5,7,9,11,13,-1,-1,-1,-1,-1,-1,-1,-1],"loss_changes":[3.7158413E1,1.5254504E1,6.13953E0,4.682928E0,7.451189E0,5.226878E0,2.024849E0,0E0,0E0,0E0,0E0,0E0,0E0,0E0,0E0],"parents":[2147483647,0,0,1,1,2,2,3,3,4,4,5,5,6,6],"right_children":[2,4,6,8,10,12,14,-1,-1,-1,-1,-1,-1,-1,-1],"split_conditions":[1.9613767E0,8.5114825E-1,1E0,5.0011456E-1,1E0,3.006376E0,2.080492E0,-4.421132E-3,-1.7018628E-3,4.4493453E-4,-2.1885808E-3,1.3030077E-3,1.0626354E-2,2.8325228E-3,6.234733E-3],"split_indices":[3,3,2,3,7,3,3,0,0,0,0,0,0,0,0],"split_type":[0,0,0,0,0,0,0,0,0,0,0,0,0,0,0],"sum_hessian":[1.537E5,1.33967E5,1.9733E4,4.0888E4,9.3079E4,8.535E3,1.1198E4,7.834E3,3.3054E4,8.0686E4,1.2393E4,7.885E3,6.5E2,2.173E3,9.025E3],"tree_param":{"num_deleted":"0","num_feature":"11","num_nodes":"15","size_leaf_vector":"1"}},{"base_weights":[-5.7852775E-4,-6.878167E-3,3.0517794E-2,-3.0810608E-2,-3.6918211E-3,2.4537535E-2,6.1444942E-2,5.203553E-3,-3.423448E-3,-4.5759214E-5,-2.5561093E-3,1.049453E-3,3.6344235E-3,5.2746856E-3,1.1332809E-2],"categories":[],"categories_nodes":[],"categories_segments":[],"categories_sizes":[],"default_left":[0,0,0,0,0,0,0,0,0,0,0,0,0,0,0],"id":48,"left_children":[1,3,5,7,9,11,13,-1,-1,-1,-1,-1,-1,-1,-1],"loss_changes":[3.0039433E1,9.723574E0,4.7761803E0,4.2514915E0,7.9593325E0,3.5888882E0,1.8826466E0,0E0,0E0,0E0,0E0,0E0,0E0,0E0,0E0],"parents":[2147483647,0,0,1,1,2,2,3,3,4,4,5,5,6,6],"right_children":[2,4,6,8,10,12,14,-1,-1,-1,-1,-1,-1,-1,-1],"split_conditions":[1.8221911E0,6.0475016E-1,2.7040505E0,1.9853523E-1,1E0,1E0,3.1143436E0,5.203553E-3,-3.423448E-3,-4.5759214E-5,-2.5561093E-3,1.049453E-3,3.6344235E-3,5.2746856E-3,1.1332809E-2],"split_indices":[3,3,3,3,7,2,3,0,0,0,0,0,0,0,0],"split_type":[0,0,0,0,0,0,0,0,0,0,0,0,0,0,0],"sum_hessian":[1.53342E5,1.27511E5,2.5831E4,1.4981E4,1.1253E5,2.1647E4,4.184E3,5.94E2,1.4387E4,9.8033E4,1.4497E4,9.888E3,1.1759E4,3.585E3,5.99E2],"tree_param":{"num_deleted":"0","num_feature":"11","num_nodes":"15","size_leaf_vector":"1"}},{"base_weights":[8.068831E-5,5.085418E-3,-9.257873E-3,8.0565205E-3,-1.7665202E-2,-1.1765691E-2,1.4843389E-3,1.1290084E-3,-9.3839096E-4,-1.4393273E-3,-2.4057345E-3,-1.0278994E-3,-2.2128704E-3,2.8177776E-4,-1.1082174E-3],"categories":[],"categories_nodes":[],"categories_segments":[],"categories_sizes":[],"default_left":[0,0,0,0,0,0,0,0,0,0,0,0,0,0,0],"id":49,"left_children":[1,3,5,7,9,11,13,-1,-1,-1,-1,-1,-1,-1,-1],"loss_changes":[7.1832395E0,6.7641134E0,1.4447298E0,4.9915476E0,2.4140644E-1,6.696229E-1,1.7012823E-1,0E0,0E0,0E0,0E0,0E0,0E0,0E0,0E0],"parents":[2147483647,0,0,1,1,2,2,3,3,4,4,5,5,6,6],"right_children":[2,4,6,8,10,12,14,-1,-1,-1,-1,-1,-1,-1,-1],"split_conditions":[1E0,1E0,1E0,1E0,2E0,1E0,5E0,1.1290084E-3,-9.3839096E-4,-1.4393273E-3,-2.4057345E-3,-1.0278994E-3,-2.2128704E-3,2.8177776E-4,-1.1082174E-3],"split_indices":[1,7,6,5,0,5,0,0,0,0,0,0,0,0,0],"split_type":[0,0,0,0,0,0,0,0,0,0,0,0,0,0,0],"sum_hessian":[1.53693E5,1.00066E5,5.3627E4,8.8508E4,1.1558E4,4.3477E4,1.015E4,7.4665E4,1.3843E4,7.647E3,3.911E3,3.8024E4,5.453E3,9.177E3,9.73E2],"tree_param":{"num_deleted":"0","num_feature":"11","num_nodes":"15","size_leaf_vector":"1"}},{"base_weights":[2.9021804E-4,-1.1243412E-2,1.5575679E-2,-3.7994698E-2,-9.033789E-3,8.441954E-3,3.3804532E-2,6.9451192E-3,-4.880037E-3,-2.0635542E-3,-3.919536E-4,1.548941E-4,1.3028204E-3,1.682324E-3,4.666555E-3],"categories":[],"categories_nodes":[],"categories_segments":[],"categories_sizes":[],"default_left":[0,0,0,0,0,0,0,0,0,0,0,0,0,0,0],"id":50,"left_children":[1,3,5,7,9,11,13,-1,-1,-1,-1,-1,-1,-1,-1],"loss_changes":[2.7046755E1,5.1681986E0,8.57934E0,7.7485886E0,4.792292E0,1.4991033E0,4.052002E0,0E0,0E0,0E0,0E0,0E0,0E0,0E0,0E0],"parents":[2147483647,0,0,1,1,2,2,3,3,4,4,5,5,6,6],"right_children":[2,4,6,8,10,12,14,-1,-1,-1,-1,-1,-1,-1,-1],"split_conditions":[1.2626452E0,4.756225E-1,1.9930067E0,1.9853523E-1,1E0,1E0,1E0,6.9451192E-3,-4.880037E-3,-2.0635542E-3,-3.919536E-4,1.548941E-4,1.3028204E-3,1.682324E-3,4.666555E-3],"split_indices":[3,3,3,3,2,2,2,0,0,0,0,0,0,0,0],"split_type":[0,0,0,0,0,0,0,0,0,0,0,0,0,0,0],"sum_hessian":[1.53414E5,8.7438E4,6.5976E4,6.67E3,8.0768E4,4.742E4,1.8556E4,6.09E2,6.061E3,2.471E4,5.6058E4,1.8946E4,2.8474E4,7.998E3,1.0558E4],"tree_param":{"num_deleted":"0","num_feature":"11","num_nodes":"15","size_leaf_vector":"1"}},{"base_weights":[1.0941568E-4,-1.0139261E-2,1.4816214E-2,-3.347841E-2,-8.311821E-3,1.1309391E-2,4.1886277E-2,3.6184338E-3,-4.888659E-3,-5.7620753E-4,-2.6428557E-3,3.472155E-4,1.6812397E-3,3.6267973E-3,7.1064583E-3],"categories":[],"categories_nodes":[],"categories_segments":[],"categories_sizes":[],"default_left":[0,0,0,0,0,0,0,0,0,0,0,0,0,0,0],"id":51,"left_children":[1,3,5,7,9,11,13,-1,-1,-1,-1,-1,-1,-1,-1],"loss_changes":[2.3131498E1,3.857154E0,5.982581E0,7.05063E0,3.8743377E0,2.4064603E0,1.1823273E0,0E0,0E0,0E0,0E0,0E0,0E0,0E0,0E0],"parents":[2147483647,0,0,1,1,2,2,3,3,4,4,5,5,6,6],"right_children":[2,4,6,8,10,12,14,-1,-1,-1,-1,-1,-1,-1,-1],"split_conditions":[1.293572E0,4.756225E-1,2.4258535E0,2.6567665E-1,1E0,1E0,3.0783274E0,3.6184338E-3,-4.888659E-3,-5.7620753E-4,-2.6428557E-3,3.472155E-4,1.6812397E-3,3.6267973E-3,7.1064583E-3],"split_indices":[3,3,3,3,7,2,3,0,0,0,0,0,0,0,0],"split_type":[0,0,0,0,0,0,0,0,0,0,0,0,0,0,0],"sum_hessian":[1.53466E5,9.0441E4,6.3025E4,6.566E3,8.3875E4,5.5798E4,7.227E3,1.189E3,5.377E3,7.3528E4,1.0347E4,2.3018E4,3.278E4,6.062E3,1.165E3],"tree_param":{"num_deleted":"0","num_feature":"11","num_nodes":"15","size_leaf_vector":"1"}},{"base_weights":[-1.8107976E-5,-5.5236947E-3,2.2666426E-2,-1.636282E-2,-3.9001225E-4,1.9659895E-2,5.7178438E-2,5.9363004E-3,-1.7507657E-3,4.3673837E-4,-9.383481E-4,2.913489E-3,8.146083E-4,4.447106E-3,9.021194E-3],"categories":[],"categories_nodes":[],"categories_segments":[],"categories_sizes":[],"default_left":[0,0,0,0,0,0,0,0,0,0,0,0,0,0,0],"id":52,"left_children":[1,3,5,7,9,11,13,-1,-1,-1,-1,-1,-1,-1,-1],"loss_changes":[1.9220203E1,6.8909683E0,3.1175299E0,3.451622E0,3.595648E0,3.0160818E0,1.006793E0,0E0,0E0,0E0,0E0,0E0,0E0,0E0,0E0],"parents":[2147483647,0,0,1,1,2,2,3,3,4,4,5,5,6,6],"right_children":[2,4,6,8,10,12,14,-1,-1,-1,-1,-1,-1,-1,-1],"split_conditions":[1.740943E0,8.4114915E-1,3.006376E0,1.9853523E-1,1E0,1E0,1E0,5.9363004E-3,-1.7507657E-3,4.3673837E-4,-9.383481E-4,2.913489E-3,8.146083E-4,4.447106E-3,9.021194E-3],"split_indices":[3,3,3,3,1,1,1,0,0,0,0,0,0,0,0],"split_type":[0,0,0,0,0,0,0,0,0,0,0,0,0,0,0],"sum_hessian":[1.53893E5,1.23838E5,3.0055E4,3.9801E4,8.4037E4,2.7648E4,2.407E3,5.92E2,3.9209E4,5.4963E4,2.9074E4,1.5166E4,1.2482E4,1.74E3,6.67E2],"tree_param":{"num_deleted":"0","num_feature":"11","num_nodes":"15","size_leaf_vector":"1"}},{"base_weights":[-1.5757832E-4,-9.650958E-3,1.1844499E-2,-2.5448048E-2,-6.784874E-3,6.204994E-3,2.6257722E-2,2.9619744E-3,-2.8026854E-3,-2.1171135E-4,-1.7470553E-3,8.8662206E-4,-1.3167966E-3,2.2623667E-3,5.1785926E-3],"categories":[],"categories_nodes":[],"categories_segments":[],"categories_sizes":[],"default_left":[0,0,0,0,0,0,0,0,0,0,0,0,0,0,0],"id":53,"left_children":[1,3,5,7,9,11,13,-1,-1,-1,-1,-1,-1,-1,-1],"loss_changes":[1.7511595E1,3.8851233E0,5.5171137E0,1.8722248E0,3.6229656E0,2.5154748E0,1.7697325E0,0E0,0E0,0E0,0E0,0E0,0E0,0E0,0E0],"parents":[2147483647,0,0,1,1,2,2,3,3,4,4,5,5,6,6],"right_children":[2,4,6,8,10,12,14,-1,-1,-1,-1,-1,-1,-1,-1],"split_conditions":[1.2448261E0,5.822824E-1,1.9775972E0,1.9853523E-1,1E0,1E0,3.006376E0,2.9619744E-3,-2.8026854E-3,-2.1171135E-4,-1.7470553E-3,8.8662206E-4,-1.3167966E-3,2.2623667E-3,5.1785926E-3],"split_indices":[3,3,3,3,1,5,3,0,0,0,0,0,0,0,0],"split_type":[0,0,0,0,0,0,0,0,0,0,0,0,0,0,0],"sum_hessian":[1.53689E5,8.5813E4,6.7876E4,1.3177E4,7.2636E4,4.8788E4,1.9088E4,5.89E2,1.2588E4,5.0554E4,2.2082E4,4.2896E4,5.892E3,1.6711E4,2.377E3],"tree_param":{"num_deleted":"0","num_feature":"11","num_nodes":"15","size_leaf_vector":"1"}},{"base_weights":[-1.8446834E-4,-8.354353E-3,1.0117797E-2,-6.124595E-3,-2.3679268E-2,7.1756374E-3,3.4672074E-2,-1.7537804E-3,-3.2123376E-4,-1.9319585E-3,-3.7798197E-3,4.969725E-4,1.9502171E-3,3.0880799E-3,7.6045245E-3],"categories":[],"categories_nodes":[],"categories_segments":[],"categories_sizes":[],"default_left":[0,0,0,0,0,0,0,0,0,0,0,0,0,0,0],"id":54,"left_children":[1,3,5,7,9,11,13,-1,-1,-1,-1,-1,-1,-1,-1],"loss_changes":[1.2917901E1,2.924776E0,4.9035788E0,2.483702E0,6.6848564E-1,1.6481826E0,1.1369047E0,0E0,0E0,0E0,0E0,0E0,0E0,0E0,0E0],"parents":[2147483647,0,0,1,1,2,2,3,3,4,4,5,5,6,6],"right_children":[2,4,6,8,10,12,14,-1,-1,-1,-1,-1,-1,-1,-1],"split_conditions":[1.2448261E0,1E0,2.4258535E0,6.3145363E-1,1E0,1E0,3.1143436E0,-1.7537804E-3,-3.2123376E-4,-1.9319585E-3,-3.7798197E-3,4.969725E-4,1.9502171E-3,3.0880799E-3,7.6045245E-3],"split_indices":[3,5,3,3,1,4,3,0,0,0,0,0,0,0,0],"split_type":[0,0,0,0,0,0,0,0,0,0,0,0,0,0,0],"sum_hessian":[1.53475E5,8.5596E4,6.7879E4,7.4725E4,1.0871E4,6.0617E4,7.262E3,1.519E4,5.9535E4,8.308E3,2.563E3,5.1417E4,9.2E3,6.654E3,6.08E2],"tree_param":{"num_deleted":"0","num_feature":"11","num_nodes":"15","size_leaf_vector":"1"}},{"base_weights":[-3.5511835E-5,1.6859113E-3,-1.1962838E-2,3.9871857E-3,-1.13111865E-2,-9.330919E-4,-1.8647965E-3,8.5712236E-4,-4.7199987E-4,-1.7555045E-3,-3.0962087E-4],"categories":[],"categories_nodes":[],"categories_segments":[],"categories_sizes":[],"default_left":[0,0,0,0,0,0,0,0,0,0,0],"id":55,"left_children":[1,3,5,7,9,-1,-1,-1,-1,-1,-1],"loss_changes":[3.1534646E0,4.014461E0,3.4065318E-1,4.5513606E0,1.0355546E0,0E0,0E0,0E0,0E0,0E0,0E0],"parents":[2147483647,0,0,1,1,2,2,3,3,4,4],"right_children":[2,4,6,8,10,-1,-1,-1,-1,-1,-1],"split_conditions":[1E0,1E0,1E0,1E0,1E0,-9.330919E-4,-1.8647965E-3,8.5712236E-4,-4.7199987E-4,-1.7555045E-3,-3.0962087E-4],"split_indices":[5,7,1,1,1,0,0,0,0,0,0],"split_type":[0,0,0,0,0,0,0,0,0,0,0],"sum_hessian":[1.53586E5,1.34216E5,1.937E4,1.14027E5,2.0189E4,1.39E4,5.47E3,7.47E4,3.9327E4,1.147E4,8.719E3],"tree_param":{"num_deleted":"0","num_feature":"11","num_nodes":"11","size_leaf_vector":"1"}},{"base_weights":[-1.060168E-4,-5.829955E-3,1.27420155E-2,-2.7055021E-2,-4.422424E-3,1.05592385E-2,3.8895965E-2,2.95973E-3,-3.9666183E-3,-1.1885599E-3,-9.744933E-5,3.745483E-4,1.5765242E-3,3.3733856E-3,6.5450496E-3],"categories":[],"categories_nodes":[],"categories_segments":[],"categories_sizes":[],"default_left":[0,0,0,0,0,0,0,0,0,0,0,0,0,0,0],"id":56,"left_children":[1,3,5,7,9,11,13,-1,-1,-1,-1,-1,-1,-1,-1],"loss_changes":[1.1307644E1,3.1776774E0,2.7049441E0,4.727271E0,2.5669608E0,1.5515046E0,4.9812508E-1,0E0,0E0,0E0,0E0,0E0,0E0,0E0,0E0],"parents":[2147483647,0,0,1,1,2,2,3,3,4,4,5,5,6,6],"right_children":[2,4,6,8,10,12,14,-1,-1,-1,-1,-1,-1,-1,-1],"split_conditions":[1.4718162E0,4.756225E-1,2.7954743E0,2.6567665E-1,1E0,1E0,3.1143436E0,2.95973E-3,-3.9666183E-3,-1.1885599E-3,-9.744933E-5,3.745483E-4,1.5765242E-3,3.3733856E-3,6.5450496E-3],"split_indices":[3,3,3,3,2,2,3,0,0,0,0,0,0,0,0],"split_type":[0,0,0,0,0,0,0,0,0,0,0,0,0,0,0],"sum_hessian":[1.53757E5,1.06369E5,4.7388E4,6.614E3,9.9755E4,4.3739E4,3.649E3,1.204E3,5.41E3,3.1522E4,6.8233E4,1.8945E4,2.4794E4,3.057E3,5.92E2],"tree_param":{"num_deleted":"0","num_feature":"11","num_nodes":"15","size_leaf_vector":"1"}},{"base_weights":[1.0200921E-4,-2.634402E-3,1.9153595E-2,-8.4451E-3,1.8941847E-3,2.3566607E-2,-6.6239364E-3,5.6402083E-3,-9.08855E-4,4.101175E-4,-1.3983411E-3,1.8321284E-3,3.6735286E-3,3.3185065E-3,-1.3878879E-3],"categories":[],"categories_nodes":[],"categories_segments":[],"categories_sizes":[],"default_left":[0,0,0,0,0,0,0,0,0,0,0,0,0,0,0],"id":57,"left_children":[1,3,5,7,9,11,13,-1,-1,-1,-1,-1,-1,-1,-1],"loss_changes":[8.005954E0,3.5335197E0,2.1941795E0,2.4546218E0,2.6445491E0,1.136837E0,8.149104E-1,0E0,0E0,0E0,0E0,0E0,0E0,0E0,0E0],"parents":[2147483647,0,0,1,1,2,2,3,3,4,4,5,5,6,6],"right_children":[2,4,6,8,10,12,14,-1,-1,-1,-1,-1,-1,-1,-1],"split_conditions":[1.9775972E0,1.0051078E0,1E0,1.9853523E-1,1E0,2.5652897E0,2.0438797E0,5.6402083E-3,-9.08855E-4,4.101175E-4,-1.3983411E-3,1.8321284E-3,3.6735286E-3,3.3185065E-3,-1.3878879E-3],"split_indices":[3,3,6,3,5,3,3,0,0,0,0,0,0,0,0],"split_type":[0,0,0,0,0,0,0,0,0,0,0,0,0,0,0],"sum_hessian":[1.53566E5,1.3428E5,1.9286E4,5.8814E4,7.5466E4,1.6467E4,2.819E3,5.77E2,5.8237E4,6.6257E4,9.209E3,1.1778E4,4.689E3,4.34E2,2.385E3],"tree_param":{"num_deleted":"0","num_feature":"11","num_nodes":"15","size_leaf_vector":"1"}},{"base_weights":[2.8463852E-5,-5.665591E-4,2.7121978E-2,-2.1374894E-3,8.069716E-3,3.6009364E-2,9.625767E-3,-4.282889E-4,8.2530035E-4,1.248098E-3,8.061692E-8,4.1327733E-3,1.936512E-4,1.3478686E-3,-1.8208696E-3],"categories":[],"categories_nodes":[],"categories_segments":[],"categories_sizes":[],"default_left":[0,0,0,0,0,0,0,0,0,0,0,0,0,0,0],"id":58,"left_children":[1,3,5,7,9,11,13,-1,-1,-1,-1,-1,-1,-1,-1],"loss_changes":[2.4800942E0,2.0423098E0,5.1372194E-1,2.8392696E0,8.2464373E-1,3.971367E-1,1.1982241E-1,0E0,0E0,0E0,0E0,0E0,0E0,0E0,0E0],"parents":[2147483647,0,0,1,1,2,2,3,3,4,4,5,5,6,6],"right_children":[2,4,6,8,10,12,14,-1,-1,-1,-1,-1,-1,-1,-1],"split_conditions":[6E0,1E0,1E0,1E0,1E0,1E0,1E0,-4.282889E-4,8.2530035E-4,1.248098E-3,8.061692E-8,4.1327733E-3,1.936512E-4,1.3478686E-3,-1.8208696E-3],"split_indices":[0,4,1,10,1,6,10,0,0,0,0,0,0,0,0],"split_type":[0,0,0,0,0,0,0,0,0,0,0,0,0,0,0],"sum_hessian":[1.53838E5,1.50533E5,3.305E3,1.27366E5,2.3167E4,2.191E3,1.114E3,1.05569E5,2.1797E4,1.4978E4,8.189E3,1.895E3,2.96E2,9.79E2,1.35E2],"tree_param":{"num_deleted":"0","num_feature":"11","num_nodes":"15","size_leaf_vector":"1"}},{"base_weights":[-3.2581718E-4,1.0979655E-3,-9.66234E-3,4.7122925E-3,-6.0228524E-3,-1.6284628E-3,-9.053115E-5,8.091829E-4,-1.4607649E-3,-9.1596704E-4,4.6821588E-4],"categories":[],"categories_nodes":[],"categories_segments":[],"categories_sizes":[],"default_left":[0,0,0,0,0,0,0,0,0,0,0],"id":59,"left_children":[1,3,5,7,9,-1,-1,-1,-1,-1,-1],"loss_changes":[2.044741E0,3.435038E0,1.1802878E0,5.7805233E0,1.5089787E0,0E0,0E0,0E0,0E0,0E0,0E0],"parents":[2147483647,0,0,1,1,2,2,3,3,4,4],"right_children":[2,4,6,8,10,-1,-1,-1,-1,-1,-1],"split_conditions":[1E0,1E0,1E0,1E0,1E0,-1.6284628E-3,-9.053115E-5,8.091829E-4,-1.4607649E-3,-9.1596704E-4,4.6821588E-4],"split_indices":[7,1,1,6,6,0,0,0,0,0,0],"split_type":[0,0,0,0,0,0,0,0,0,0,0],"sum_hessian":[1.53817E5,1.33465E5,2.0352E4,8.853E4,4.4935E4,1.1588E4,8.764E3,7.535E4,1.318E4,3.4752E4,1.0183E4],"tree_param":{"num_deleted":"0","num_feature":"11","num_nodes":"11","size_leaf_vector":"1"}},{"base_weights":[6.296693E-4,1.0012521E-4,2.4775276E-2,1.4031213E-3,-8.953804E-3,3.126136E-2,1.20021235E-2,4.3015444E-4,-3.7763012E-4,-7.736603E-4,-2.521636E-3,3.4263444E-3,1.1552696E-3,1.4197163E-3,-3.3704852E-4],"categories":[],"categories_nodes":[],"categories_segments":[],"categories_sizes":[],"default_left":[0,0,0,0,0,0,0,0,0,0,0,0,0,0,0],"id":60,"left_children":[1,3,5,7,9,11,13,-1,-1,-1,-1,-1,-1,-1,-1],"loss_changes":[1.967916E0,1.7767704E0,2.7327085E-1,1.9765317E0,3.7487698E-1,1.2917972E-1,3.7638083E-2,0E0,0E0,0E0,0E0,0E0,0E0,0E0,0E0],"parents":[2147483647,0,0,1,1,2,2,3,3,4,4,5,5,6,6],"right_children":[2,4,6,8,10,12,14,-1,-1,-1,-1,-1,-1,-1,-1],"split_conditions":[6E0,1E0,1E0,1E0,5E0,1E0,1E0,4.3015444E-4,-3.7763012E-4,-7.736603E-4,-2.521636E-3,3.4263444E-3,1.1552696E-3,1.4197163E-3,-3.3704852E-4],"split_indices":[0,5,1,1,0,6,10,0,0,0,0,0,0,0,0],"split_type":[0,0,0,0,0,0,0,0,0,0,0,0,0,0,0],"sum_hessian":[1.53909E5,1.50607E5,3.302E3,1.3166E5,1.8947E4,2.189E3,1.113E3,8.4419E4,4.7241E4,1.7629E4,1.318E3,1.899E3,2.9E2,9.74E2,1.39E2],"tree_param":{"num_deleted":"0","num_feature":"11","num_nodes":"15","size_leaf_vector":"1"}},{"base_weights":[6.065178E-5,-5.2274773E-3,9.816904E-3,-2.0921346E-2,-3.6574255E-3,5.0232396E-3,1.7710995E-2,2.2074895E-3,-2.7527583E-3,-1.618919E-4,-1.7993975E-3,6.978329E-4,-9.4743026E-4,8.6532236E-4,2.4631568E-3],"categories":[],"categories_nodes":[],"categories_segments":[],"categories_sizes":[],"default_left":[0,0,0,0,0,0,0,0,0,0,0,0,0,0,0],"id":61,"left_children":[1,3,5,7,9,11,13,-1,-1,-1,-1,-1,-1,-1,-1],"loss_changes":[7.9178734E0,2.4522374E0,2.041277E0,2.5714846E0,2.6441162E0,9.51432E-1,1.2773695E0,0E0,0E0,0E0,0E0,0E0,0E0,0E0,0E0],"parents":[2147483647,0,0,1,1,2,2,3,3,4,4,5,5,6,6],"right_children":[2,4,6,8,10,12,14,-1,-1,-1,-1,-1,-1,-1,-1],"split_conditions":[1.3909818E0,5.202528E-1,1.9462872E0,2.6567665E-1,1E0,1E0,1E0,2.2074895E-3,-2.7527583E-3,-1.618919E-4,-1.7993975E-3,6.978329E-4,-9.4743026E-4,8.6532236E-4,2.4631568E-3],"split_indices":[3,3,3,3,7,5,2,0,0,0,0,0,0,0,0],"split_type":[0,0,0,0,0,0,0,0,0,0,0,0,0,0,0],"sum_hessian":[1.53468E5,9.9524E4,5.3944E4,9.05E3,9.0474E4,3.3564E4,2.038E4,1.205E3,7.845E3,7.9212E4,1.1262E4,2.9576E4,3.988E3,8.828E3,1.1552E4],"tree_param":{"num_deleted":"0","num_feature":"11","num_nodes":"15","size_leaf_vector":"1"}},{"base_weights":[-7.849831E-5,-7.020804E-3,6.3352897E-3,-1.3625911E-2,-4.240622E-3,2.9879035E-3,1.5341358E-2,-1.6563181E-3,-1.102451E-4,-6.7875016E-4,9.1002503E-4,4.830639E-4,-1.0364323E-3,1.8298868E-3,-1.8580216E-4],"categories":[],"categories_nodes":[],"categories_segments":[],"categories_sizes":[],"default_left":[0,0,0,0,0,0,0,0,0,0,0,0,0,0,0],"id":62,"left_children":[1,3,5,7,9,11,13,-1,-1,-1,-1,-1,-1,-1,-1],"loss_changes":[6.8390884E0,1.3544083E0,2.406783E0,8.0369234E-1,1.763873E0,1.4321619E0,1.1004477E0,0E0,0E0,0E0,0E0,0E0,0E0,0E0,0E0],"parents":[2147483647,0,0,1,1,2,2,3,3,4,4,5,5,6,6],"right_children":[2,4,6,8,10,12,14,-1,-1,-1,-1,-1,-1,-1,-1],"split_conditions":[1.134326E0,1E0,1.9169155E0,1E0,1E0,1E0,1E0,-1.6563181E-3,-1.102451E-4,-6.7875016E-4,9.1002503E-4,4.830639E-4,-1.0364323E-3,1.8298868E-3,-1.8580216E-4],"split_indices":[3,2,3,6,10,5,6,0,0,0,0,0,0,0,0],"split_type":[0,0,0,0,0,0,0,0,0,0,0,0,0,0,0],"sum_hessian":[1.53594E5,7.3758E4,7.9836E4,2.1848E4,5.191E4,5.8204E4,2.1632E4,1.7697E4,4.151E3,4.3589E4,8.321E3,5.1146E4,7.058E3,1.8458E4,3.174E3],"tree_param":{"num_deleted":"0","num_feature":"11","num_nodes":"15","size_leaf_vector":"1"}},{"base_weights":[-4.143346E-5,-6.857781E-3,5.0837453E-3,-2.3116574E-2,-5.06648E-3,2.5231051E-3,1.5418317E-2,3.930277E-3,-2.9259175E-3,-3.220583E-4,-1.853669E-3,4.4098194E-4,-1.1182578E-3,1.9742497E-3,-1.0496456E-3],"categories":[],"categories_nodes":[],"categories_segments":[],"categories_sizes":[],"default_left":[0,0,0,0,0,0,0,0,0,0,0,0,0,0,0],"id":63,"left_children":[1,3,5,7,9,11,13,-1,-1,-1,-1,-1,-1,-1,-1],"loss_changes":[5.3610907E0,1.918103E0,2.3180249E0,2.507164E0,1.4751084E0,1.8154079E0,1.9493814E0,0E0,0E0,0E0,0E0,0E0,0E0,0E0,0E0],"parents":[2147483647,0,0,1,1,2,2,3,3,4,4,5,5,6,6],"right_children":[2,4,6,8,10,12,14,-1,-1,-1,-1,-1,-1,-1,-1],"split_conditions":[1.066634E0,4.756225E-1,2.0261724E0,1.9853523E-1,1E0,1E0,1E0,3.930277E-3,-2.9259175E-3,-3.220583E-4,-1.853669E-3,4.4098194E-4,-1.1182578E-3,1.9742497E-3,-1.0496456E-3],"split_indices":[3,3,3,3,7,5,6,0,0,0,0,0,0,0,0],"split_type":[0,0,0,0,0,0,0,0,0,0,0,0,0,0,0],"sum_hessian":[1.53457E5,6.5862E4,8.7595E4,6.535E3,5.9327E4,7.0202E4,1.7393E4,5.85E2,5.95E3,5.2178E4,7.149E3,6.1708E4,8.494E3,1.4906E4,2.487E3],"tree_param":{"num_deleted":"0","num_feature":"11","num_nodes":"15","size_leaf_vector":"1"}},{"base_weights":[4.558999E-5,-3.407637E-3,8.882571E-3,-1.8411309E-3,-1.4252548E-2,6.635245E-3,2.1311576E-2,5.159775E-3,-2.1460706E-4,-3.589694E-3,-1.2708509E-3,1.1306606E-3,5.602989E-5,1.8460893E-3,4.9441713E-3],"categories":[],"categories_nodes":[],"categories_segments":[],"categories_sizes":[],"default_left":[0,0,0,0,0,0,0,0,0,0,0,0,0,0,0],"id":64,"left_children":[1,3,5,7,9,11,13,-1,-1,-1,-1,-1,-1,-1,-1],"loss_changes":[4.699266E0,1.8810383E0,1.2084217E0,1.5767293E0,4.665854E-1,1.0398871E0,5.303469E-1,0E0,0E0,0E0,0E0,0E0,0E0,0E0,0E0],"parents":[2147483647,0,0,1,1,2,2,3,3,4,4,5,5,6,6],"right_children":[2,4,6,8,10,12,14,-1,-1,-1,-1,-1,-1,-1,-1],"split_conditions":[1.5298625E0,1E0,2.460434E0,1.9853523E-1,4.882361E-1,1E0,3.1143436E0,5.159775E-3,-2.1460706E-4,-3.589694E-3,-1.2708509E-3,1.1306606E-3,5.602989E-5,1.8460893E-3,4.9441713E-3],"split_indices":[3,5,3,3,3,1,3,0,0,0,0,0,0,0,0],"split_type":[0,0,0,0,0,0,0,0,0,0,0,0,0,0,0],"sum_hessian":[1.53991E5,1.10724E5,4.3267E4,9.675E4,1.3974E4,3.6643E4,6.624E3,5.48E2,9.6202E4,9.29E2,1.3045E4,2.0714E4,1.5929E4,6.016E3,6.08E2],"tree_param":{"num_deleted":"0","num_feature":"11","num_nodes":"15","size_leaf_vector":"1"}},{"base_weights":[-9.445048E-5,1.3359856E-3,-9.470115E-3,4.1631027E-3,-4.2368537E-3,-1.5197979E-2,-1.7881359E-3,2.052066E-4,1.4113871E-3,-2.5236988E-4,-1.4516193E-3,-1.3085814E-3,-1.9309943E-3,-4.8535928E-4,3.5325772E-4],"categories":[],"categories_nodes":[],"categories_segments":[],"categories_sizes":[],"default_left":[0,0,0,0,0,0,0,0,0,0,0,0,0,0,0],"id":65,"left_children":[1,3,5,7,9,11,13,-1,-1,-1,-1,-1,-1,-1,-1],"loss_changes":[2.060228E0,2.0999165E0,8.9473987E-1,1.8574864E0,7.899348E-1,1.0092068E-1,1.4170572E-1,0E0,0E0,0E0,0E0,0E0,0E0,0E0,0E0],"parents":[2147483647,0,0,1,1,2,2,3,3,4,4,5,5,6,6],"right_children":[2,4,6,8,10,12,14,-1,-1,-1,-1,-1,-1,-1,-1],"split_conditions":[1E0,1E0,1E0,1E0,1E0,2E0,2E0,2.052066E-4,1.4113871E-3,-2.5236988E-4,-1.4516193E-3,-1.3085814E-3,-1.9309943E-3,-4.8535928E-4,3.5325772E-4],"split_indices":[7,1,1,10,9,0,0,0,0,0,0,0,0,0,0],"split_type":[0,0,0,0,0,0,0,0,0,0,0,0,0,0,0],"sum_hessian":[1.53617E5,1.33283E5,2.0334E4,8.8425E4,4.4858E4,1.1648E4,8.686E3,7.295E4,1.5475E4,3.8451E4,6.407E3,7.698E3,3.95E3,5.511E3,3.175E3],"tree_param":{"num_deleted":"0","num_feature":"11","num_nodes":"15","size_leaf_vector":"1"}},{"base_weights":[-6.815049E-5,-5.4708207E-3,4.915584E-3,-1.9475868E-2,-3.8118744E-3,2.3002054E-3,1.1680659E-2,1.9033488E-3,-2.6440292E-3,-6.337304E-5,-1.1417352E-3,4.0727455E-4,-8.857976E-4,1.0687725E-3,4.818944E-3],"categories":[],"categories_nodes":[],"categories_segments":[],"categories_sizes":[],"default_left":[0,0,0,0,0,0,0,0,0,0,0,0,0,0,0],"id":66,"left_children":[1,3,5,7,9,11,13,-1,-1,-1,-1,-1,-1,-1,-1],"loss_changes":[4.1461186E0,1.7165883E0,1.4171654E0,2.099133E0,1.5968215E0,1.1425704E0,8.0903816E-1,0E0,0E0,0E0,0E0,0E0,0E0,0E0,0E0],"parents":[2147483647,0,0,1,1,2,2,3,3,4,4,5,5,6,6],"right_children":[2,4,6,8,10,12,14,-1,-1,-1,-1,-1,-1,-1,-1],"split_conditions":[1.134326E0,5.0011456E-1,1.9013686E0,2.6567665E-1,1E0,1E0,3.1143436E0,1.9033488E-3,-2.6440292E-3,-6.337304E-5,-1.1417352E-3,4.0727455E-4,-8.857976E-4,1.0687725E-3,4.818944E-3],"split_indices":[3,3,3,3,1,7,3,0,0,0,0,0,0,0,0],"split_type":[0,0,0,0,0,0,0,0,0,0,0,0,0,0,0],"sum_hessian":[1.53983E5,7.3886E4,8.0097E4,7.824E3,6.6062E4,5.7766E4,2.2331E4,1.198E3,6.626E3,4.6593E4,1.9469E4,4.9848E4,7.918E3,2.1741E4,5.9E2],"tree_param":{"num_deleted":"0","num_feature":"11","num_nodes":"15","size_leaf_vector":"1"}},{"base_weights":[1.4445242E-4,-3.919399E-3,4.816232E-3,-2.3301844E-3,-1.4835295E-2,3.5882113E-3,1.5784742E-2,-8.581942E-4,7.690162E-6,-3.7500374E-3,-1.2681162E-3,5.103393E-4,-5.48365E-4,2.020899E-3,-1.2404277E-3],"categories":[],"categories_nodes":[],"categories_segments":[],"categories_sizes":[],"default_left":[0,0,0,0,0,0,0,0,0,0,0,0,0,0,0],"id":67,"left_children":[1,3,5,7,9,11,13,-1,-1,-1,-1,-1,-1,-1,-1],"loss_changes":[2.9144323E0,1.4241422E0,9.618448E-1,1.0784378E0,5.089009E-1,8.828197E-1,8.9695287E-1,0E0,0E0,0E0,0E0,0E0,0E0,0E0,0E0],"parents":[2147483647,0,0,1,1,2,2,3,3,4,4,5,5,6,6],"right_children":[2,4,6,8,10,12,14,-1,-1,-1,-1,-1,-1,-1,-1],"split_conditions":[1.2104815E0,1E0,2.4258535E0,6.894301E-1,4.882361E-1,1E0,1E0,-8.581942E-4,7.690162E-6,-3.7500374E-3,-1.2681162E-3,5.103393E-4,-5.48365E-4,2.020899E-3,-1.2404277E-3],"split_indices":[3,5,3,3,3,7,6,0,0,0,0,0,0,0,0],"split_type":[0,0,0,0,0,0,0,0,0,0,0,0,0,0,0],"sum_hessian":[1.53507E5,8.2095E4,7.1412E4,7.1663E4,1.0432E4,6.4223E4,7.189E3,1.9921E4,5.1742E4,9.04E2,9.528E3,5.5032E4,9.191E3,6.214E3,9.75E2],"tree_param":{"num_deleted":"0","num_feature":"11","num_nodes":"15","size_leaf_vector":"1"}},{"base_weights":[-3.489763E-4,-1.6990934E-3,7.0059765E-3,-3.1241663E-3,5.1849564E-3,1.0773033E-2,1.2646543E-4,-3.555494E-4,1.6303699E-3,1.309952E-3,-1.2647532E-3,1.2087018E-3,-7.242204E-6,-2.2099877E-4,4.5119488E-4],"categories":[],"categories_nodes":[],"categories_segments":[],"categories_sizes":[],"default_left":[0,0,0,0,0,0,0,0,0,0,0,0,0,0,0],"id":68,"left_children":[1,3,5,7,9,11,13,-1,-1,-1,-1,-1,-1,-1,-1],"loss_changes":[1.527581E0,1.2751064E0,6.1831677E-1,9.024259E-1,3.1463766E0,2.1970487E-1,8.652098E-2,0E0,0E0,0E0,0E0,0E0,0E0,0E0,0E0],"parents":[2147483647,0,0,1,1,2,2,3,3,4,4,5,5,6,6],"right_children":[2,4,6,8,10,12,14,-1,-1,-1,-1,-1,-1,-1,-1],"split_conditions":[1E0,1E0,1E0,6E0,1E0,4E0,2E0,-3.555494E-4,1.6303699E-3,1.309952E-3,-1.2647532E-3,1.2087018E-3,-7.242204E-6,-2.2099877E-4,4.5119488E-4],"split_indices":[4,10,1,0,1,0,0,0,0,0,0,0,0,0,0],"split_type":[0,0,0,0,0,0,0,0,0,0,0,0,0,0,0],"sum_hessian":[1.53832E5,1.29974E5,2.3858E4,1.07683E5,2.2291E4,1.5416E4,8.442E3,1.05345E5,2.338E3,1.5439E4,6.852E3,1.375E4,1.666E3,5.508E3,2.934E3],"tree_param":{"num_deleted":"0","num_feature":"11","num_nodes":"15","size_leaf_vector":"1"}},{"base_weights":[-3.1421067E-5,-1.8931743E-3,9.158606E-3,-1.5432609E-2,-1.1516283E-3,1.1934446E-2,-6.7682224E-3,2.8266874E-3,-1.9707521E-3,-1.6767792E-4,2.2593318E-3,1.1076876E-3,5.0961296E-3,3.0052577E-4,-1.7145969E-3],"categories":[],"categories_nodes":[],"categories_segments":[],"categories_sizes":[],"default_left":[0,0,0,0,0,0,0,0,0,0,0,0,0,0,0],"id":69,"left_children":[1,3,5,7,9,11,13,-1,-1,-1,-1,-1,-1,-1,-1],"loss_changes":[2.6307664E0,1.2836912E0,1.145217E0,1.2407978E0,1.5116122E0,7.37679E-1,3.9003715E-1,0E0,0E0,0E0,0E0,0E0,0E0,0E0,0E0],"parents":[2147483647,0,0,1,1,2,2,3,3,4,4,5,5,6,6],"right_children":[2,4,6,8,10,12,14,-1,-1,-1,-1,-1,-1,-1,-1],"split_conditions":[1.8221911E0,4.756225E-1,1E0,1.9853523E-1,6E0,6E0,2.1479154E0,2.8266874E-3,-1.9707521E-3,-1.6767792E-4,2.2593318E-3,1.1076876E-3,5.0961296E-3,3.0052577E-4,-1.7145969E-3],"split_indices":[3,3,6,3,0,0,3,0,0,0,0,0,0,0,0],"split_type":[0,0,0,0,0,0,0,0,0,0,0,0,0,0,0],"sum_hessian":[1.53758E5,1.27857E5,2.5901E4,6.638E3,1.21219E5,2.2057E4,3.844E3,5.91E2,6.047E3,1.18597E5,2.622E3,2.1584E4,4.73E2,1.98E3,1.864E3],"tree_param":{"num_deleted":"0","num_feature":"11","num_nodes":"15","size_leaf_vector":"1"}},{"base_weights":[-1.2485917E-4,1.699619E-3,-3.5361566E-3,3.664539E-3,-1.1336686E-3,-5.5390103E-3,5.08932E-4,6.0400786E-4,-1.1708174E-3,-3.9526267E-4,-1.4659361E-3],"categories":[],"categories_nodes":[],"categories_segments":[],"categories_sizes":[],"default_left":[0,0,0,0,0,0,0,0,0,0,0],"id":70,"left_children":[1,3,5,7,-1,9,-1,-1,-1,-1,-1],"loss_changes":[9.5542735E-1,2.562032E0,9.2415005E-1,3.1741846E0,0E0,6.280576E-1,0E0,0E0,0E0,0E0,0E0],"parents":[2147483647,0,0,1,1,2,2,3,3,5,5],"right_children":[2,4,6,8,-1,10,-1,-1,-1,-1,-1],"split_conditions":[1E0,1E0,1E0,1E0,-1.1336686E-3,1E0,5.08932E-4,6.0400786E-4,-1.1708174E-3,-3.9526267E-4,-1.4659361E-3],"split_indices":[1,6,6,7,0,9,0,0,0,0,0],"split_type":[0,0,0,0,0,0,0,0,0,0,0],"sum_hessian":[1.53509E5,1.00017E5,5.3492E4,8.6917E4,1.31E4,4.3412E4,1.008E4,7.5284E4,1.1633E4,3.6981E4,6.431E3],"tree_param":{"num_deleted":"0","num_feature":"11","num_nodes":"11","size_leaf_vector":"1"}},{"base_weights":[4.033991E-4,-3.1241765E-3,4.865277E-3,2.3607448E-2,-3.5016693E-3,4.287733E-3,3.1010987E-2,3.0457925E-3,-8.1184844E-4,-2.8156193E-3,-2.595377E-4,5.390661E-4,-1.0025677E-3,2.5425486E-3,5.5658524E-3],"categories":[],"categories_nodes":[],"categories_segments":[],"categories_sizes":[],"default_left":[0,0,0,0,0,0,0,0,0,0,0,0,0,0,0],"id":71,"left_children":[1,3,5,7,9,11,13,-1,-1,-1,-1,-1,-1,-1,-1],"loss_changes":[2.4183595E0,8.659706E-1,1.024271E0,2.5996584E-1,1.89056E0,1.0478929E0,2.0040739E-1,0E0,0E0,0E0,0E0,0E0,0E0,0E0,0E0],"parents":[2147483647,0,0,1,1,2,2,3,3,4,4,5,5,6,6],"right_children":[2,4,6,8,10,12,14,-1,-1,-1,-1,-1,-1,-1,-1],"split_conditions":[1.2448261E0,2.6567665E-1,6E0,3E0,4.1722924E-1,5E0,2.2509983E0,3.0457925E-3,-8.1184844E-4,-2.8156193E-3,-2.595377E-4,5.390661E-4,-1.0025677E-3,2.5425486E-3,5.5658524E-3],"split_indices":[3,3,0,0,3,0,3,0,0,0,0,0,0,0,0],"split_type":[0,0,0,0,0,0,0,0,0,0,0,0,0,0,0],"sum_hessian":[1.53646E5,8.5807E4,6.7839E4,1.194E3,8.4613E4,6.6374E4,1.465E3,9.82E2,2.12E2,2.999E3,8.1614E4,6.1626E4,4.748E3,1.196E3,2.69E2],"tree_param":{"num_deleted":"0","num_feature":"11","num_nodes":"15","size_leaf_vector":"1"}},{"base_weights":[2.600007E-4,-2.0535388E-3,7.0652934E-3,-1.970299E-2,-1.3842583E-3,5.1579024E-3,1.6458308E-2,1.1356756E-3,-3.2197193E-3,-1.5433729E-5,-9.858393E-4,3.530752E-4,1.4658141E-3,1.2071035E-3,3.9199763E-3],"categories":[],"categories_nodes":[],"categories_segments":[],"categories_sizes":[],"default_left":[0,0,0,0,0,0,0,0,0,0,0,0,0,0,0],"id":72,"left_children":[1,3,5,7,9,11,13,-1,-1,-1,-1,-1,-1,-1,-1],"loss_changes":[2.420073E0,1.3550127E0,6.9860923E-1,1.6267536E0,1.151926E0,5.0106055E-1,6.5623283E-1,0E0,0E0,0E0,0E0,0E0,0E0,0E0,0E0],"parents":[2147483647,0,0,1,1,2,2,3,3,4,4,5,5,6,6],"right_children":[2,4,6,8,10,12,14,-1,-1,-1,-1,-1,-1,-1,-1],"split_conditions":[1.5910848E0,4.1722924E-1,2.460434E0,2.6567665E-1,1E0,1E0,1E0,1.1356756E-3,-3.2197193E-3,-1.5433729E-5,-9.858393E-4,3.530752E-4,1.4658141E-3,1.2071035E-3,3.9199763E-3],"split_indices":[3,3,3,3,5,8,7,0,0,0,0,0,0,0,0],"split_type":[0,0,0,0,0,0,0,0,0,0,0,0,0,0,0],"sum_hessian":[1.53709E5,1.14712E5,3.8997E4,4.19E3,1.10522E5,3.2416E4,6.581E3,1.202E3,2.988E3,9.6515E4,1.4007E4,2.7677E4,4.739E3,5.518E3,1.063E3],"tree_param":{"num_deleted":"0","num_feature":"11","num_nodes":"15","size_leaf_vector":"1"}},{"base_weights":[-1.2388105E-4,-8.7739E-3,1.575256E-3,1.1717145E-2,-9.803848E-3,2.8475728E-3,-6.533076E-3,1.8579125E-3,-2.557507E-3,-2.70544E-3,-7.394939E-4,5.5769505E-4,-2.2222793E-4,-8.65969E-4,4.1379165E-3],"categories":[],"categories_nodes":[],"categories_segments":[],"categories_sizes":[],"default_left":[0,0,0,0,0,0,0,0,0,0,0,0,0,0,0],"id":73,"left_children":[1,3,5,7,9,11,13,-1,-1,-1,-1,-1,-1,-1,-1],"loss_changes":[2.2568989E0,5.321859E-1,1.3240727E0,3.093446E-1,9.973283E-1,1.5351214E0,1.7740738E0,0E0,0E0,0E0,0E0,0E0,0E0,0E0,0E0],"parents":[2147483647,0,0,1,1,2,2,3,3,4,4,5,5,6,6],"right_children":[2,4,6,8,10,12,14,-1,-1,-1,-1,-1,-1,-1,-1],"split_conditions":[7.127354E-1,2.6567665E-1,1E0,3E0,4.1722924E-1,1E0,2.6324096E0,1.8579125E-3,-2.557507E-3,-2.70544E-3,-7.394939E-4,5.5769505E-4,-2.2222793E-4,-8.65969E-4,4.1379165E-3],"split_indices":[3,3,7,0,3,1,3,0,0,0,0,0,0,0,0],"split_type":[0,0,0,0,0,0,0,0,0,0,0,0,0,0,0],"sum_hessian":[1.53554E5,2.521E4,1.28344E5,1.206E3,2.4004E4,1.10937E5,1.7407E4,1.019E3,1.87E2,2.94E3,2.1064E4,7.2114E4,3.8823E4,1.6668E4,7.39E2],"tree_param":{"num_deleted":"0","num_feature":"11","num_nodes":"15","size_leaf_vector":"1"}},{"base_weights":[-6.020531E-4,-4.2021377E-3,2.1603783E-3,-3.2230176E-3,-1.0874663E-2,7.4232294E-4,7.811424E-3,-1.5783348E-4,-6.983676E-4,1.7433738E-3,-1.1635871E-3,2.0728516E-4,-8.8994036E-4,1.303051E-3,7.592253E-5],"categories":[],"categories_nodes":[],"categories_segments":[],"categories_sizes":[],"default_left":[0,0,0,0,0,0,0,0,0,0,0,0,0,0,0],"id":74,"left_children":[1,3,5,7,9,11,13,-1,-1,-1,-1,-1,-1,-1,-1],"loss_changes":[1.5285834E0,4.3595195E-1,6.969278E-1,3.5993648E-1,1.8420625E-1,8.919264E-1,6.421081E-1,0E0,0E0,0E0,0E0,0E0,0E0,0E0,0E0],"parents":[2147483647,0,0,1,1,2,2,3,3,4,4,5,5,6,6],"right_children":[2,4,6,8,10,12,14,-1,-1,-1,-1,-1,-1,-1,-1],"split_conditions":[1.0722737E0,1E0,2.0261724E0,1E0,3.1218788E-1,1E0,1E0,-1.5783348E-4,-6.983676E-4,1.7433738E-3,-1.1635871E-3,2.0728516E-4,-8.8994036E-4,1.303051E-3,7.592253E-5],"split_indices":[3,5,3,1,3,5,1,0,0,0,0,0,0,0,0],"split_type":[0,0,0,0,0,0,0,0,0,0,0,0,0,0,0],"sum_hessian":[1.53702E5,6.6733E4,8.6969E4,5.8195E4,8.538E3,6.9524E4,1.7445E4,4.0489E4,1.7706E4,2.23E2,8.315E3,6.1094E4,8.43E3,1.0025E4,7.42E3],"tree_param":{"num_deleted":"0","num_feature":"11","num_nodes":"15","size_leaf_vector":"1"}},{"base_weights":[4.648083E-4,-1.13391274E-4,1.4772508E-2,9.907724E-4,-7.420028E-3,1.7609367E-2,-3.7840777E-3,-3.9580578E-4,3.4742907E-4,1.5913625E-4,-1.4256906E-3,3.084501E-3,9.508584E-4,-1.728788E-3,4.6556187E-3],"categories":[],"categories_nodes":[],"categories_segments":[],"categories_sizes":[],"default_left":[0,0,0,0,0,0,0,0,0,0,0,0,0,0,0],"id":75,"left_children":[1,3,5,7,9,11,13,-1,-1,-1,-1,-1,-1,-1,-1],"loss_changes":[1.2723604E0,1.1926508E0,3.145523E-1,1.578398E0,1.1956835E0,5.553161E-1,5.398743E-1,0E0,0E0,0E0,0E0,0E0,0E0,0E0,0E0],"parents":[2147483647,0,0,1,1,2,2,3,3,4,4,5,5,6,6],"right_children":[2,4,6,8,10,12,14,-1,-1,-1,-1,-1,-1,-1,-1],"split_conditions":[2.5060654E0,1E0,1E0,1E0,1E0,1E0,3.0783274E0,-3.9580578E-4,3.4742907E-4,1.5913625E-4,-1.4256906E-3,3.084501E-3,9.508584E-4,-1.728788E-3,4.6556187E-3],"split_indices":[3,7,6,2,2,2,3,0,0,0,0,0,0,0,0],"split_type":[0,0,0,0,0,0,0,0,0,0,0,0,0,0,0],"sum_hessian":[1.53801E5,1.47828E5,5.973E3,1.28422E5,1.9406E4,5.181E3,7.92E2,4.2912E4,8.551E4,8.372E3,1.1034E4,1.966E3,3.215E3,6.25E2,1.67E2],"tree_param":{"num_deleted":"0","num_feature":"11","num_nodes":"15","size_leaf_vector":"1"}},{"base_weights":[1.8196103E-4,-1.8249344E-4,1.6620895E-2,6.451631E-4,-5.9130993E-3,2.3066321E-2,3.5745862E-3,1.6403709E-4,-4.9606233E-4,-5.0289376E-4,-1.7632276E-3,2.776221E-3,-9.305626E-4,6.859568E-4,-1.9614224E-3],"categories":[],"categories_nodes":[],"categories_segments":[],"categories_sizes":[],"default_left":[0,0,0,0,0,0,0,0,0,0,0,0,0,0,0],"id":76,"left_children":[1,3,5,7,9,11,13,-1,-1,-1,-1,-1,-1,-1,-1],"loss_changes":[9.19569E-1,7.1219444E-1,2.7984983E-1,7.320073E-1,1.9626456E-1,3.389479E-1,8.407919E-2,0E0,0E0,0E0,0E0,0E0,0E0,0E0,0E0],"parents":[2147483647,0,0,1,1,2,2,3,3,4,4,5,5,6,6],"right_children":[2,4,6,8,10,12,14,-1,-1,-1,-1,-1,-1,-1,-1],"split_conditions":[6E0,1E0,1E0,1E0,5E0,1E0,1E0,1.6403709E-4,-4.9606233E-4,-5.0289376E-4,-1.7632276E-3,2.776221E-3,-9.305626E-4,6.859568E-4,-1.9614224E-3],"split_indices":[0,5,1,7,0,7,10,0,0,0,0,0,0,0,0],"split_type":[0,0,0,0,0,0,0,0,0,0,0,0,0,0,0],"sum_hessian":[1.53484E5,1.50156E5,3.328E3,1.31207E5,1.8949E4,2.227E3,1.101E3,1.11426E5,1.9781E4,1.7621E4,1.328E3,1.945E3,2.82E2,9.65E2,1.36E2],"tree_param":{"num_deleted":"0","num_feature":"11","num_nodes":"15","size_leaf_vector":"1"}},{"base_weights":[3.889795E-4,-6.856533E-3,1.6568138E-3,-9.194489E-3,5.750098E-3,1.1309609E-3,2.5121642E-2,1.6477779E-3,-1.0608529E-3,9.96638E-4,-2.1899133E-3,-7.3151314E-6,7.690659E-4,2.0386062E-3,6.4101503E-3],"categories":[],"categories_nodes":[],"categories_segments":[],"categories_sizes":[],"default_left":[0,0,0,0,0,0,0,0,0,0,0,0,0,0,0],"id":77,"left_children":[1,3,5,7,9,11,13,-1,-1,-1,-1,-1,-1,-1,-1],"loss_changes":[1.4113193E0,6.7441213E-1,1.613376E0,7.0083225E-1,4.1756362E-1,1.0101621E0,5.277349E-1,0E0,0E0,0E0,0E0,0E0,0E0,0E0,0E0],"parents":[2147483647,0,0,1,1,2,2,3,3,4,4,5,5,6,6],"right_children":[2,4,6,8,10,12,14,-1,-1,-1,-1,-1,-1,-1,-1],"split_conditions":[6.894301E-1,3E0,6E0,2.6567665E-1,6E0,1E0,2.1721854E0,1.6477779E-3,-1.0608529E-3,9.96638E-4,-2.1899133E-3,-7.3151314E-6,7.690659E-4,2.0386062E-3,6.4101503E-3],"split_indices":[3,0,0,3,0,4,3,0,0,0,0,0,0,0,0],"split_type":[0,0,0,0,0,0,0,0,0,0,0,0,0,0,0],"sum_hessian":[1.53634E5,2.2879E4,1.30755E5,1.93E4,3.579E3,1.2789E5,2.865E3,1.007E3,1.8293E4,3.106E3,4.73E2,1.08056E5,1.9834E4,2.556E3,3.09E2],"tree_param":{"num_deleted":"0","num_feature":"11","num_nodes":"15","size_leaf_vector":"1"}},{"base_weights":[-2.6259015E-4,-6.265241E-4,1.624527E-2,2.4293631E-4,-6.6707353E-3,2.1859074E-2,5.5155475E-3,1.2081799E-4,-4.3581144E-4,-5.8831106E-4,-1.7127896E-3,2.6144513E-3,-7.37255E-4,1.9355402E-4,1.9368333E-3],"categories":[],"categories_nodes":[],"categories_segments":[],"categories_sizes":[],"default_left":[0,0,0,0,0,0,0,0,0,0,0,0,0,0,0],"id":78,"left_children":[1,3,5,7,9,11,13,-1,-1,-1,-1,-1,-1,-1,-1],"loss_changes":[9.232844E-1,7.9020536E-1,1.9955707E-1,5.838235E-1,1.55648E-1,2.727809E-1,5.6498613E-2,0E0,0E0,0E0,0E0,0E0,0E0,0E0,0E0],"parents":[2147483647,0,0,1,1,2,2,3,3,4,4,5,5,6,6],"right_children":[2,4,6,8,10,12,14,-1,-1,-1,-1,-1,-1,-1,-1],"split_conditions":[6E0,1E0,1E0,1E0,5E0,1E0,1E0,1.2081799E-4,-4.3581144E-4,-5.8831106E-4,-1.7127896E-3,2.6144513E-3,-7.37255E-4,1.9355402E-4,1.9368333E-3],"split_indices":[0,5,1,6,0,7,6,0,0,0,0,0,0,0,0],"split_type":[0,0,0,0,0,0,0,0,0,0,0,0,0,0,0],"sum_hessian":[1.53679E5,1.50365E5,3.314E3,1.31456E5,1.8909E4,2.175E3,1.139E3,1.08661E5,2.2795E4,1.7586E4,1.323E3,1.897E3,2.78E2,9.06E2,2.33E2],"tree_param":{"num_deleted":"0","num_feature":"11","num_nodes":"15","size_leaf_vector":"1"}},{"base_weights":[-1.6182382E-4,-1.0315654E-3,4.764327E-3,-1.9177021E-3,3.2829698E-3,8.329075E-3,-2.5069574E-3,-2.1626342E-4,9.173577E-4,9.913895E-4,-1.1606105E-3,8.721004E-4,4.4769022E-4,-5.9846236E-4,5.478092E-4],"categories":[],"categories_nodes":[],"categories_segments":[],"categories_sizes":[],"default_left":[0,0,0,0,0,0,0,0,0,0,0,0,0,0,0],"id":79,"left_children":[1,3,5,7,9,11,13,-1,-1,-1,-1,-1,-1,-1,-1],"loss_changes":[6.574538E-1,4.986484E-1,5.968874E-1,2.9395974E-1,2.1941547E0,2.3290157E-2,2.1041325E-1,0E0,0E0,0E0,0E0,0E0,0E0,0E0,0E0],"parents":[2147483647,0,0,1,1,2,2,3,3,4,4,5,5,6,6],"right_children":[2,4,6,8,10,12,14,-1,-1,-1,-1,-1,-1,-1,-1],"split_conditions":[1E0,1E0,1E0,6E0,1E0,5E0,2E0,-2.1626342E-4,9.173577E-4,9.913895E-4,-1.1606105E-3,8.721004E-4,4.4769022E-4,-5.9846236E-4,5.478092E-4],"split_indices":[8,10,1,0,1,0,0,0,0,0,0,0,0,0,0],"split_type":[0,0,0,0,0,0,0,0,0,0,0,0,0,0,0],"sum_hessian":[1.53448E5,1.30422E5,2.3026E4,1.082E5,2.2222E4,1.5451E4,7.575E3,1.05863E5,2.337E3,1.5375E4,6.847E3,1.4023E4,1.428E3,5.277E3,2.298E3],"tree_param":{"num_deleted":"0","num_feature":"11","num_nodes":"15","size_leaf_vector":"1"}},{"base_weights":[-7.0897827E-6,-5.5028843E-3,1.263384E-3,-8.114981E-3,8.29928E-4,9.87596E-4,2.9741243E-2,-2.394349E-3,-5.527479E-4,3.388943E-3,-7.213781E-5,1.9229294E-4,-4.9499626E-4,8.654021E-4,8.249565E-3],"categories":[],"categories_nodes":[],"categories_segments":[],"categories_sizes":[],"default_left":[0,0,0,0,0,0,0,0,0,0,0,0,0,0,0],"id":80,"left_children":[1,3,5,7,9,11,13,-1,-1,-1,-1,-1,-1,-1,-1],"loss_changes":[1.0737463E0,4.7765464E-1,9.809718E-1,8.3713746E-1,4.3251428E-1,6.87045E-1,1.3319938E0,0E0,0E0,0E0,0E0,0E0,0E0,0E0,0E0],"parents":[2147483647,0,0,1,1,2,2,3,3,4,4,5,5,6,6],"right_children":[2,4,6,8,10,12,14,-1,-1,-1,-1,-1,-1,-1,-1],"split_conditions":[7.455246E-1,2E0,3.0783274E0,4.1722924E-1,2.6567665E-1,1E0,1E0,-2.394349E-3,-5.527479E-4,3.388943E-3,-7.213781E-5,1.9229294E-4,-4.9499626E-4,8.654021E-4,8.249565E-3],"split_indices":[3,0,3,3,3,7,1,0,0,0,0,0,0,0,0],"split_type":[0,0,0,0,0,0,0,0,0,0,0,0,0,0,0],"sum_hessian":[1.5378E5,2.8874E4,1.24906E5,2.0442E4,8.432E3,1.23709E5,1.197E3,2.871E3,1.7571E4,3.77E2,8.055E3,1.06874E5,1.6835E4,8.56E2,3.41E2],"tree_param":{"num_deleted":"0","num_feature":"11","num_nodes":"15","size_leaf_vector":"1"}},{"base_weights":[3.4192466E-4,-2.3254058E-3,3.4097633E-3,-1.4592243E-3,-8.267478E-3,3.075906E-3,2.3007736E-2,-1.1254799E-3,-9.311041E-5,-2.0399883E-3,-7.248127E-4,2.7577006E-4,1.7363755E-3,3.7840827E-4,7.188277E-3],"categories":[],"categories_nodes":[],"categories_segments":[],"categories_sizes":[],"default_left":[0,0,0,0,0,0,0,0,0,0,0,0,0,0,0],"id":81,"left_children":[1,3,5,7,9,11,13,-1,-1,-1,-1,-1,-1,-1,-1],"loss_changes":[1.2543708E0,4.2202455E-1,4.6639395E-1,3.702228E-1,1.288665E-1,3.1865972E-1,1.1215588E0,0E0,0E0,0E0,0E0,0E0,0E0,0E0,0E0],"parents":[2147483647,0,0,1,1,2,2,3,3,4,4,5,5,6,6],"right_children":[2,4,6,8,10,12,14,-1,-1,-1,-1,-1,-1,-1,-1],"split_conditions":[1.2104815E0,1E0,3.0783274E0,4.1722924E-1,4.756225E-1,6E0,1E0,-1.1254799E-3,-9.311041E-5,-2.0399883E-3,-7.248127E-4,2.7577006E-4,1.7363755E-3,3.7840827E-4,7.188277E-3],"split_indices":[3,5,3,3,3,0,1,0,0,0,0,0,0,0,0],"split_type":[0,0,0,0,0,0,0,0,0,0,0,0,0,0,0],"sum_hessian":[1.53289E5,8.1997E4,7.1292E4,7.1566E4,1.0431E4,7.0099E4,1.193E3,3.66E3,6.7906E4,8.07E2,9.624E3,6.8573E4,1.526E3,8.57E2,3.36E2],"tree_param":{"num_deleted":"0","num_feature":"11","num_nodes":"15","size_leaf_vector":"1"}},{"base_weights":[5.746827E-5,-2.8325948E-3,2.3457583E-3,-1.1880212E-3,-6.7614033E-3,2.1533906E-3,3.0615782E-2,3.1170638E-3,-1.7396382E-4,-9.2326105E-4,4.911763E-4,1.8386003E-4,1.6429907E-3,8.4675086E-4,7.5329654E-3],"categories":[],"categories_nodes":[],"categories_segments":[],"categories_sizes":[],"default_left":[0,0,0,0,0,0,0,0,0,0,0,0,0,0,0],"id":82,"left_children":[1,3,5,7,9,11,13,-1,-1,-1,-1,-1,-1,-1,-1],"loss_changes":[1.0170135E0,4.3907028E-1,4.6668184E-1,8.5513866E-1,5.7848173E-1,3.830837E-1,5.7375646E-1,0E0,0E0,0E0,0E0,0E0,0E0,0E0,0E0],"parents":[2147483647,0,0,1,1,2,2,3,3,4,4,5,5,6,6],"right_children":[2,4,6,8,10,12,14,-1,-1,-1,-1,-1,-1,-1,-1],"split_conditions":[1.0824288E0,1E0,3.1143436E0,2.6567665E-1,3E0,6E0,1E0,3.1170638E-3,-1.7396382E-4,-9.2326105E-4,4.911763E-4,1.8386003E-4,1.6429907E-3,8.4675086E-4,7.5329654E-3],"split_indices":[3,1,3,3,0,0,1,0,0,0,0,0,0,0,0],"split_type":[0,0,0,0,0,0,0,0,0,0,0,0,0,0,0],"sum_hessian":[1.53781E5,6.7955E4,8.5826E4,4.7904E4,2.0051E4,8.5247E4,5.79E2,8.02E2,4.7102E4,1.6548E4,3.503E3,8.3409E4,1.838E3,3.88E2,1.91E2],"tree_param":{"num_deleted":"0","num_feature":"11","num_nodes":"15","size_leaf_vector":"1"}},{"base_weights":[6.0316997E-5,-1.0889535E-3,3.7894403E-3,-1.9911334E-3,4.099266E-3,2.6443608E-3,1.025079E-2,-2.979271E-4,2.4302835E-4,1.0405746E-3,-1.2176784E-3,1.4302383E-4,1.1883725E-3,1.1983922E-3,-2.1691376E-3],"categories":[],"categories_nodes":[],"categories_segments":[],"categories_sizes":[],"default_left":[0,0,0,0,0,0,0,0,0,0,0,0,0,0,0],"id":83,"left_children":[1,3,5,7,9,11,13,-1,-1,-1,-1,-1,-1,-1,-1],"loss_changes":[6.5900993E-1,5.501879E-1,2.6799297E-1,4.374763E-1,1.7873743E0,3.4518582E-1,3.0213815E-1,0E0,0E0,0E0,0E0,0E0,0E0,0E0,0E0],"parents":[2147483647,0,0,1,1,2,2,3,3,4,4,5,5,6,6],"right_children":[2,4,6,8,10,12,14,-1,-1,-1,-1,-1,-1,-1,-1],"split_conditions":[1.6383501E0,1E0,1E0,1E0,1E0,2.7040505E0,3.0485601E0,-2.979271E-4,2.4302835E-4,1.0405746E-3,-1.2176784E-3,1.4302383E-4,1.1883725E-3,1.1983922E-3,-2.1691376E-3],"split_indices":[3,10,4,4,1,3,3,0,0,0,0,0,0,0,0],"split_type":[0,0,0,0,0,0,0,0,0,0,0,0,0,0,0],"sum_hessian":[1.53765E5,1.17541E5,3.6224E4,1.0013E5,1.7411E4,3.0772E4,5.452E3,8.184E4,1.829E4,1.2549E4,4.862E3,2.7199E4,3.573E3,5.172E3,2.8E2],"tree_param":{"num_deleted":"0","num_feature":"11","num_nodes":"15","size_leaf_vector":"1"}},{"base_weights":[-3.0809658E-4,-3.371359E-3,1.6921854E-3,-4.44933E-3,2.4039259E-3,6.679257E-4,7.5669456E-3,-1.318201E-3,-3.6172746E-4,1.5976705E-3,1.0129753E-4,3.3718938E-5,1.5948886E-3,4.359036E-3,6.9933245E-4],"categories":[],"categories_nodes":[],"categories_segments":[],"categories_sizes":[],"default_left":[0,0,0,0,0,0,0,0,0,0,0,0,0,0,0],"id":84,"left_children":[1,3,5,7,9,11,13,-1,-1,-1,-1,-1,-1,-1,-1],"loss_changes":[9.409888E-1,3.7769216E-1,5.590304E-1,3.71423E-1,1.8014672E-1,3.9982924E-1,2.847107E-1,0E0,0E0,0E0,0E0,0E0,0E0,0E0,0E0],"parents":[2147483647,0,0,1,1,2,2,3,3,4,4,5,5,6,6],"right_children":[2,4,6,8,10,12,14,-1,-1,-1,-1,-1,-1,-1,-1],"split_conditions":[1.0203991E0,3E0,1E0,4.4899046E-1,4.4899046E-1,6E0,1.030427E0,-1.318201E-3,-3.6172746E-4,1.5976705E-3,1.0129753E-4,3.3718938E-5,1.5948886E-3,4.359036E-3,6.9933245E-4],"split_indices":[3,0,8,3,3,0,3,0,0,0,0,0,0,0,0],"split_type":[0,0,0,0,